{"learner":{"attributes":{"scikit_learn":"{\"_estimator_type\": \"classifier\"}"},"feature_names":["gender","SeniorCitizen","Partner","Dependents","tenure","PhoneService","MultipleLines","InternetService","OnlineSecurity","OnlineBackup","DeviceProtection","TechSupport","StreamingTV","StreamingMovies","Contract","PaperlessBilling","PaymentMethod","MonthlyCharges","TotalCharges"],"feature_types":["float","float","float","float","float","float","float","float","float","float","float","float","float","float","float","float","float","float","float"],"gradient_booster":{"model":{"gbtree_model_param":{"num_parallel_tree":"1","num_trees":"200"},"iteration_indptr":[0,1,2,3,4,5,6,7,8,9,10,11,12,13,14,15,16,17,18,19,20,21,22,23,24,25,26,27,28,29,30,31,32,33,34,35,36,37,38,39,40,41,42,43,44,45,46,47,48,49,50,51,52,53,54,55,56,57,58,59,60,61,62,63,64,65,66,67,68,69,70,71,72,73,74,75,76,77,78,79,80,81,82,83,84,85,86,87,88,89,90,91,92,93,94,95,96,97,98,99,100,101,102,103,104,105,106,107,108,109,110,111,112,113,114,115,116,117,118,119,120,121,122,123,124,125,126,127,128,129,130,131,132,133,134,135,136,137,138,139,140,141,142,143,144,145,146,147,148,149,150,151,152,153,154,155,156,157,158,159,160,161,162,163,164,165,166,167,168,169,170,171,172,173,174,175,176,177,178,179,180,181,182,183,184,185,186,187,188,189,190,191,192,193,194,195,196,197,198,199,200],"tree_info":[0,0,0,0,0,0,0,0,0,0,0,0,0,0,0,0,0,0,0,0,0,0,0,0,0,0,0,0,0,0,0,0,0,0,0,0,0,0,0,0,0,0,0,0,0,0,0,0,0,0,0,0,0,0,0,0,0,0,0,0,0,0,0,0,0,0,0,0,0,0,0,0,0,0,0,0,0,0,0,0,0,0,0,0,0,0,0,0,0,0,0,0,0,0,0,0,0,0,0,0,0,0,0,0,0,0,0,0,0,0,0,0,0,0,0,0,0,0,0,0,0,0,0,0,0,0,0,0,0,0,0,0,0,0,0,0,0,0,0,0,0,0,0,0,0,0,0,0,0,0,0,0,0,0,0,0,0,0,0,0,0,0,0,0,0,0,0,0,0,0,0,0,0,0,0,0,0,0,0,0,0,0,0,0,0,0,0,0,0,0,0,0,0,0,0,0,0,0,0,0],"trees":[{"base_weights":[4.6470743E-3,7.1067923E-1,-1E0,9.747511E-2,-1.8059252E-2,-1E-1,-6.544384E-2],"categories":[],"categories_nodes":[],"categories_segments":[],"categories_sizes":[],"default_left":[0,0,0,0,0,0,0],"id":0,"left_children":[1,3,5,-1,-1,-1,-1],"loss_changes":[1.7266718E3,2.727757E2,1.1073242E1,0E0,0E0,0E0,0E0],"parents":[2147483647,0,0,1,1,2,2],"right_children":[2,4,6,-1,-1,-1,-1],"split_conditions":[5E-1,5E-1,8.330842E-1,9.747511E-2,-1.8059252E-2,-1E-1,-6.544384E-2],"split_indices":[14,8,17,0,0,0,0],"split_type":[0,0,0,0,0,0,0],"sum_hessian":[1.6435123E3,1.1565095E3,4.8700293E2,8.921854E2,2.6432404E2,3.8631973E2,1.006832E2],"tree_param":{"num_deleted":"0","num_feature":"19","num_nodes":"7","size_leaf_vector":"1"}},{"base_weights":[-3.2498978E-2,6.324578E-1,-1E0,8.759979E-2,-1.9247277E-2,-1E-1,-6.0735773E-2],"categories":[],"categories_nodes":[],"categories_segments":[],"categories_sizes":[],"default_left":[0,0,0,0,0,0,0],"id":1,"left_children":[1,3,5,-1,-1,-1,-1],"loss_changes":[1.5067749E3,2.2914462E2,1.4574341E1,0E0,0E0,0E0,0E0],"parents":[2147483647,0,0,1,1,2,2],"right_children":[2,4,6,-1,-1,-1,-1],"split_conditions":[4.9059308E-1,5E-1,8.2810163E-1,8.759979E-2,-1.9247277E-2,-1E-1,-6.0735773E-2],"split_indices":[14,8,17,0,0,0,0],"split_type":[0,0,0,0,0,0,0],"sum_hessian":[1.6313455E3,1.1379562E3,4.9338934E2,8.786238E2,2.5933237E2,3.9285782E2,1.00531525E2],"tree_param":{"num_deleted":"0","num_feature":"19","num_nodes":"7","size_leaf_vector":"1"}},{"base_weights":[-4.641505E-2,5.6502867E-1,-1E0,7.9143226E-2,-2.492219E-2,-1E-1,-3.3953033E-2],"categories":[],"categories_nodes":[],"categories_segments":[],"categories_sizes":[],"default_left":[0,0,0,0,0,0,0],"id":2,"left_children":[1,3,5,-1,-1,-1,-1],"loss_changes":[1.2520701E3,2.0635431E2,4.7961548E1,0E0,0E0,0E0,0E0],"parents":[2147483647,0,0,1,1,2,2],"right_children":[2,4,6,-1,-1,-1,-1],"split_conditions":[5E-1,5E-1,8.2810163E-1,7.9143226E-2,-2.492219E-2,-1E-1,-3.3953033E-2],"split_indices":[14,11,17,0,0,0,0],"split_type":[0,0,0,0,0,0,0],"sum_hessian":[1.6315394E3,1.1164856E3,5.1505383E2,8.737023E2,2.4278337E2,4.0351077E2,1.11543045E2],"tree_param":{"num_deleted":"0","num_feature":"19","num_nodes":"7","size_leaf_vector":"1"}},{"base_weights":[-4.829308E-2,5.2963954E-1,-1E0,7.4940875E-2,-2.755241E-2,-1E-1,-3.657077E-2],"categories":[],"categories_nodes":[],"categories_segments":[],"categories_sizes":[],"default_left":[0,0,0,0,0,0,0],"id":3,"left_children":[1,3,5,-1,-1,-1,-1],"loss_changes":[1.1507877E3,1.9874814E2,4.1253906E1,0E0,0E0,0E0,0E0],"parents":[2147483647,0,0,1,1,2,2],"right_children":[2,4,6,-1,-1,-1,-1],"split_conditions":[5E-1,5E-1,8.330842E-1,7.4940875E-2,-2.755241E-2,-1E-1,-3.657077E-2],"split_indices":[14,11,17,0,0,0,0],"split_type":[0,0,0,0,0,0,0],"sum_hessian":[1.6242572E3,1.120192E3,5.0406516E2,8.8014905E2,2.4004295E2,3.997262E2,1.04338974E2],"tree_param":{"num_deleted":"0","num_feature":"19","num_nodes":"7","size_leaf_vector":"1"}},{"base_weights":[-5.2986536E-2,4.9050203E-1,-1E0,6.98697E-2,-2.3186287E-2,-1E-1,-3.7770364E-2],"categories":[],"categories_nodes":[],"categories_segments":[],"categories_sizes":[],"default_left":[0,0,0,0,0,0,0],"id":4,"left_children":[1,3,5,-1,-1,-1,-1],"loss_changes":[1.0133993E3,1.6628146E2,4.003827E1,0E0,0E0,0E0,0E0],"parents":[2147483647,0,0,1,1,2,2],"right_children":[2,4,6,-1,-1,-1,-1],"split_conditions":[4.9059308E-1,4.9816716E-1,8.2810163E-1,6.98697E-2,-2.3186287E-2,-1E-1,-3.7770364E-2],"split_indices":[14,11,17,0,0,0,0],"split_type":[0,0,0,0,0,0,0],"sum_hessian":[1.6024269E3,1.102675E3,4.997519E2,8.5610547E2,2.4656953E2,3.9445752E2,1.0529438E2],"tree_param":{"num_deleted":"0","num_feature":"19","num_nodes":"7","size_leaf_vector":"1"}},{"base_weights":[-7.1583174E-2,4.3975317E-1,-1E0,-5.0578965E-3,7.049226E-2,-1E-1,-3.9708126E-2],"categories":[],"categories_nodes":[],"categories_segments":[],"categories_sizes":[],"default_left":[0,0,0,0,0,0,0],"id":5,"left_children":[1,3,5,-1,-1,-1,-1],"loss_changes":[8.7283923E2,1.4029695E2,5.40141E1,0E0,0E0,0E0,0E0],"parents":[2147483647,0,0,1,1,2,2],"right_children":[2,4,6,-1,-1,-1,-1],"split_conditions":[5E-1,4.88291E-1,7.508417E-1,-5.0578965E-3,7.049226E-2,-1E-1,-3.9708126E-2],"split_indices":[14,17,17,0,0,0,0],"split_type":[0,0,0,0,0,0,0],"sum_hessian":[1.5776515E3,1.0767694E3,5.0088208E2,3.780811E2,6.986883E2,3.502092E2,1.5067287E2],"tree_param":{"num_deleted":"0","num_feature":"19","num_nodes":"7","size_leaf_vector":"1"}},{"base_weights":[-6.533033E-2,4.6610516E-1,-9.3737674E-1,8.302221E-2,-2.3669514E-3,2.6275355E-2,-1E-1],"categories":[],"categories_nodes":[],"categories_segments":[],"categories_sizes":[],"default_left":[0,0,0,0,0,0,0],"id":6,"left_children":[1,3,5,-1,-1,-1,-1],"loss_changes":[7.214166E2,1.7259534E2,1.3603601E2,0E0,0E0,0E0,0E0],"parents":[2147483647,0,0,1,1,2,2],"right_children":[2,4,6,-1,-1,-1,-1],"split_conditions":[5E-1,2.3943663E-1,4.225352E-2,8.302221E-2,-2.3669514E-3,2.6275355E-2,-1E-1],"split_indices":[8,4,4,0,0,0,0],"split_type":[0,0,0,0,0,0,0],"sum_hessian":[1.5540461E3,9.658168E2,5.8822943E2,5.536911E2,4.1212567E2,8.622334E1,5.020061E2],"tree_param":{"num_deleted":"0","num_feature":"19","num_nodes":"7","size_leaf_vector":"1"}},{"base_weights":[-5.7064466E-2,3.9667186E-1,-1E0,5.8516588E-2,-2.301596E-2,-3.9087176E-2,-1E-1],"categories":[],"categories_nodes":[],"categories_segments":[],"categories_sizes":[],"default_left":[0,0,0,0,0,0,0],"id":7,"left_children":[1,3,5,-1,-1,-1,-1],"loss_changes":[7.0265924E2,1.2700223E2,5.8110535E1,0E0,0E0,0E0,0E0],"parents":[2147483647,0,0,1,1,2,2],"right_children":[2,4,6,-1,-1,-1,-1],"split_conditions":[5E-1,5E-1,4.908837E-1,5.8516588E-2,-2.301596E-2,-3.9087176E-2,-1E-1],"split_indices":[14,11,8,0,0,0,0],"split_type":[0,0,0,0,0,0,0],"sum_hessian":[1.5616462E3,1.0717386E3,4.8990762E2,8.2413855E2,2.4760005E2,1.5864001E2,3.312676E2],"tree_param":{"num_deleted":"0","num_feature":"19","num_nodes":"7","size_leaf_vector":"1"}},{"base_weights":[-9.087127E-2,3.3345443E-1,-9.902557E-1,6.2092956E-2,-3.5898655E-3,-1E-1,-2.4840288E-2],"categories":[],"categories_nodes":[],"categories_segments":[],"categories_sizes":[],"default_left":[0,0,0,0,0,0,0],"id":8,"left_children":[1,3,5,-1,-1,-1,-1],"loss_changes":[5.785824E2,1.0946965E2,8.177173E1,0E0,0E0,0E0,0E0],"parents":[2147483647,0,0,1,1,2,2],"right_children":[2,4,6,-1,-1,-1,-1],"split_conditions":[5E-1,3.3333334E-1,7.508417E-1,6.2092956E-2,-3.5898655E-3,-1E-1,-2.4840288E-2],"split_indices":[14,16,17,0,0,0,0],"split_type":[0,0,0,0,0,0,0],"sum_hessian":[1.5133911E3,1.0286136E3,4.8477744E2,5.781878E2,4.5042587E2,3.389082E2,1.4586922E2],"tree_param":{"num_deleted":"0","num_feature":"19","num_nodes":"7","size_leaf_vector":"1"}},{"base_weights":[-7.10893E-2,3.147584E-1,-9.324077E-1,-1.0467677E-2,5.8291793E-2,-1E-1,-2.2490004E-2],"categories":[],"categories_nodes":[],"categories_segments":[],"categories_sizes":[],"default_left":[0,0,0,0,0,0,0],"id":9,"left_children":[1,3,5,-1,-1,-1,-1],"loss_changes":[5.0001575E2,1.1699006E2,8.4637665E1,0E0,0E0,0E0,0E0],"parents":[2147483647,0,0,1,1,2,2],"right_children":[2,4,6,-1,-1,-1,-1],"split_conditions":[5E-1,5.127055E-1,7.508417E-1,-1.0467677E-2,5.8291793E-2,-1E-1,-2.2490004E-2],"split_indices":[14,17,17,0,0,0,0],"split_type":[0,0,0,0,0,0,0],"sum_hessian":[1.5017645E3,1.0375073E3,4.642572E2,4.047166E2,6.327908E2,3.1893942E2,1.4531776E2],"tree_param":{"num_deleted":"0","num_feature":"19","num_nodes":"7","size_leaf_vector":"1"}},{"base_weights":[-7.5126454E-2,3.4467375E-1,-7.3645335E-1,5.2550364E-2,-3.7598375E-2,3.348179E-3,-9.817197E-2],"categories":[],"categories_nodes":[],"categories_segments":[],"categories_sizes":[],"default_left":[0,0,0,0,0,0,0],"id":10,"left_children":[1,3,5,-1,-1,-1,-1],"loss_changes":[4.0559097E2,1.1671635E2,1.0725479E2,0E0,0E0,0E0,0E0],"parents":[2147483647,0,0,1,1,2,2],"right_children":[2,4,6,-1,-1,-1,-1],"split_conditions":[4.9917376E-1,5E-1,1.1862943E-1,5.2550364E-2,-3.7598375E-2,3.348179E-3,-9.817197E-2],"split_indices":[8,11,4,0,0,0,0],"split_type":[0,0,0,0,0,0,0],"sum_hessian":[1.45815E3,8.921527E2,5.659973E2,7.1352264E2,1.7863004E2,1.3685155E2,4.2914578E2],"tree_param":{"num_deleted":"0","num_feature":"19","num_nodes":"7","size_leaf_vector":"1"}},{"base_weights":[-5.9143905E-2,2.759748E-1,-8.0015814E-1,-1.1241907E-2,5.3117763E-2,-1E-1,-1.30241485E-2],"categories":[],"categories_nodes":[],"categories_segments":[],"categories_sizes":[],"default_left":[0,0,0,0,0,0,0],"id":11,"left_children":[1,3,5,-1,-1,-1,-1],"loss_changes":[3.5858807E2,9.866596E1,8.927484E1,0E0,0E0,0E0,0E0],"parents":[2147483647,0,0,1,1,2,2],"right_children":[2,4,6,-1,-1,-1,-1],"split_conditions":[5E-1,5.127055E-1,7.508417E-1,-1.1241907E-2,5.3117763E-2,-1E-1,-1.30241485E-2],"split_indices":[14,17,17,0,0,0,0],"split_type":[0,0,0,0,0,0,0],"sum_hessian":[1.441092E3,9.926605E2,4.4843143E2,3.936822E2,5.989784E2,3.0619208E2,1.4223936E2],"tree_param":{"num_deleted":"0","num_feature":"19","num_nodes":"7","size_leaf_vector":"1"}},{"base_weights":[-5.6750648E-2,2.5889143E-1,-7.677821E-1,4.808987E-2,-1.6146507E-2,-1E-1,-1.40455235E-2],"categories":[],"categories_nodes":[],"categories_segments":[],"categories_sizes":[],"default_left":[0,0,0,0,0,0,0],"id":12,"left_children":[1,3,5,-1,-1,-1,-1],"loss_changes":[3.2055304E2,9.243109E1,8.391513E1,0E0,0E0,0E0,0E0],"parents":[2147483647,0,0,1,1,2,2],"right_children":[2,4,6,-1,-1,-1,-1],"split_conditions":[5E-1,2.3943663E-1,7.389138E-1,4.808987E-2,-1.6146507E-2,-1E-1,-1.40455235E-2],"split_indices":[14,4,17,0,0,0,0],"split_type":[0,0,0,0,0,0,0],"sum_hessian":[1.4253126E3,9.874553E2,4.378573E2,6.4624243E2,3.412129E2,2.9172205E2,1.4613527E2],"tree_param":{"num_deleted":"0","num_feature":"19","num_nodes":"7","size_leaf_vector":"1"}},{"base_weights":[-3.788272E-2,3.1555268E-1,-6.0576004E-1,7.867042E-2,3.0026177E-3,-1.8395195E-2,-9.918189E-2],"categories":[],"categories_nodes":[],"categories_segments":[],"categories_sizes":[],"default_left":[0,0,0,0,0,0,0],"id":13,"left_children":[1,3,5,-1,-1,-1,-1],"loss_changes":[2.8337878E2,1.1697801E2,8.79651E1,0E0,0E0,0E0,0E0],"parents":[2147483647,0,0,1,1,2,2],"right_children":[2,4,6,-1,-1,-1,-1],"split_conditions":[5E-1,9.859155E-2,4.7110972E-1,7.867042E-2,3.0026177E-3,-1.8395195E-2,-9.918189E-2],"split_indices":[8,4,14,0,0,0,0],"split_type":[0,0,0,0,0,0,0],"sum_hessian":[1.4089191E3,8.6859265E2,5.4032635E2,3.2696213E2,5.4163055E2,2.5903745E2,2.812889E2],"tree_param":{"num_deleted":"0","num_feature":"19","num_nodes":"7","size_leaf_vector":"1"}},{"base_weights":[-5.2818667E-2,2.8810063E-1,-5.94434E-1,-2.371034E-2,4.9587864E-2,4.5322996E-2,-7.040342E-2],"categories":[],"categories_nodes":[],"categories_segments":[],"categories_sizes":[],"default_left":[0,0,0,0,0,0,0],"id":14,"left_children":[1,3,5,-1,-1,-1,-1],"loss_changes":[2.571192E2,9.341657E1,6.218422E1,0E0,0E0,0E0,0E0],"parents":[2147483647,0,0,1,1,2,2],"right_children":[2,4,6,-1,-1,-1,-1],"split_conditions":[5E-1,9.116291E-3,1.4084507E-2,-2.371034E-2,4.9587864E-2,4.5322996E-2,-7.040342E-2],"split_indices":[8,7,4,0,0,0,0],"split_type":[0,0,0,0,0,0,0],"sum_hessian":[1.3894976E3,8.529146E2,5.365829E2,2.4159879E2,6.1131586E2,5.0434437E1,4.8614847E2],"tree_param":{"num_deleted":"0","num_feature":"19","num_nodes":"7","size_leaf_vector":"1"}},{"base_weights":[-3.834801E-2,2.746267E-1,-5.312482E-1,5.3349882E-2,-8.495784E-3,5.7228215E-2,-6.28508E-2],"categories":[],"categories_nodes":[],"categories_segments":[],"categories_sizes":[],"default_left":[0,0,0,0,0,0,0],"id":15,"left_children":[1,3,5,-1,-1,-1,-1],"loss_changes":[2.1102612E2,7.797232E1,5.7481308E1,0E0,0E0,0E0,0E0],"parents":[2147483647,0,0,1,1,2,2],"right_children":[2,4,6,-1,-1,-1,-1],"split_conditions":[5E-1,3.3333334E-1,6.2312844E-4,5.3349882E-2,-8.495784E-3,5.7228215E-2,-6.28508E-2],"split_indices":[11,16,18,0,0,0,0],"split_type":[0,0,0,0,0,0,0],"sum_hessian":[1.3648359E3,8.3492633E2,5.299096E2,4.8532535E2,3.4960095E2,4.244194E1,4.8746765E2],"tree_param":{"num_deleted":"0","num_feature":"19","num_nodes":"7","size_leaf_vector":"1"}},{"base_weights":[-2.3716051E-2,2.7471322E-1,-5.080727E-1,-2.1034129E-2,4.728862E-2,5.5956632E-2,-5.960698E-2],"categories":[],"categories_nodes":[],"categories_segments":[],"categories_sizes":[],"default_left":[0,0,0,0,0,0,0],"id":16,"left_children":[1,3,5,-1,-1,-1,-1],"loss_changes":[1.9605151E2,8.079966E1,4.9013412E1,0E0,0E0,0E0,0E0],"parents":[2147483647,0,0,1,1,2,2],"right_children":[2,4,6,-1,-1,-1,-1],"split_conditions":[5E-1,9.116291E-3,6.2312844E-4,-2.1034129E-2,4.728862E-2,5.5956632E-2,-5.960698E-2],"split_indices":[8,7,18,0,0,0,0],"split_type":[0,0,0,0,0,0,0],"sum_hessian":[1.3531471E3,8.374134E2,5.157337E2,2.4273105E2,5.946824E2,3.877649E1,4.769572E2],"tree_param":{"num_deleted":"0","num_feature":"19","num_nodes":"7","size_leaf_vector":"1"}},{"base_weights":[-5.642692E-2,1.9283462E-1,-6.3937014E-1,5.5880666E-2,-3.5814622E-3,-9.3004726E-2,-1.4337796E-2],"categories":[],"categories_nodes":[],"categories_segments":[],"categories_sizes":[],"default_left":[0,0,0,0,0,0,0],"id":17,"left_children":[1,3,5,-1,-1,-1,-1],"loss_changes":[1.9205075E2,7.754918E1,5.6875732E1,0E0,0E0,0E0,0E0],"parents":[2147483647,0,0,1,1,2,2],"right_children":[2,4,6,-1,-1,-1,-1],"split_conditions":[5E-1,7.042254E-2,7.389138E-1,5.5880666E-2,-3.5814622E-3,-9.3004726E-2,-1.4337796E-2],"split_indices":[14,4,17,0,0,0,0],"split_type":[0,0,0,0,0,0,0],"sum_hessian":[1.3184812E3,9.23919E2,3.9456223E2,3.5488678E2,5.690322E2,2.4809119E2,1.4647102E2],"tree_param":{"num_deleted":"0","num_feature":"19","num_nodes":"7","size_leaf_vector":"1"}},{"base_weights":[-4.8726324E-2,2.4532785E-1,-5.1290226E-1,5.9081417E-2,-1.8327701E-3,-9.836625E-3,-7.6366775E-2],"categories":[],"categories_nodes":[],"categories_segments":[],"categories_sizes":[],"default_left":[0,0,0,0,0,0,0],"id":18,"left_children":[1,3,5,-1,-1,-1,-1],"loss_changes":[1.8009305E2,7.364613E1,5.30605E1,0E0,0E0,0E0,0E0],"parents":[2147483647,0,0,1,1,2,2],"right_children":[2,4,6,-1,-1,-1,-1],"split_conditions":[5E-1,1.4084508E-1,2.4758634E-1,5.9081417E-2,-1.8327701E-3,-9.836625E-3,-7.6366775E-2],"split_indices":[11,4,4,0,0,0,0],"split_type":[0,0,0,0,0,0,0],"sum_hessian":[1.3162742E3,8.0595807E2,5.1031613E2,3.4847083E2,4.5748727E2,1.9302344E2,3.172927E2],"tree_param":{"num_deleted":"0","num_feature":"19","num_nodes":"7","size_leaf_vector":"1"}},{"base_weights":[-4.178608E-2,3.396429E-1,-3.4406716E-1,2.5341585E-2,1E-1,-1.8032916E-2,-9.135927E-2],"categories":[],"categories_nodes":[],"categories_segments":[],"categories_sizes":[],"default_left":[0,0,0,0,0,0,0],"id":19,"left_children":[1,3,5,-1,-1,-1,-1],"loss_changes":[1.4961395E2,4.545793E1,6.7332405E1,0E0,0E0,0E0,0E0],"parents":[2147483647,0,0,1,1,2,2],"right_children":[2,4,6,-1,-1,-1,-1],"split_conditions":[3.3333334E-1,1.0611021E-2,9.823443E-1,2.5341585E-2,1E-1,-1.8032916E-2,-9.135927E-2],"split_indices":[16,16,14,0,0,0,0],"split_type":[0,0,0,0,0,0,0],"sum_hessian":[1.2944889E3,5.7211694E2,7.223719E2,5.3075745E2,4.135953E1,5.6222504E2,1.6014688E2],"tree_param":{"num_deleted":"0","num_feature":"19","num_nodes":"7","size_leaf_vector":"1"}},{"base_weights":[-3.791353E-2,8.933028E-2,-8.03251E-1,3.9652396E-2,-9.720035E-3,-2.517044E-2,-1E-1],"categories":[],"categories_nodes":[],"categories_segments":[],"categories_sizes":[],"default_left":[0,0,0,0,0,0,0],"id":20,"left_children":[1,3,5,-1,-1,-1,-1],"loss_changes":[1.2421972E2,6.2707314E1,2.1092987E1,0E0,0E0,0E0,0E0],"parents":[2147483647,0,0,1,1,2,2],"right_children":[2,4,6,-1,-1,-1,-1],"split_conditions":[1E0,1.12676054E-1,4.9743316E-1,3.9652396E-2,-9.720035E-3,-2.517044E-2,-1E-1],"split_indices":[14,4,8,0,0,0,0],"split_type":[0,0,0,0,0,0,0],"sum_hessian":[1.2713348E3,1.0907423E3,1.8059248E2,4.1186316E2,6.7887915E2,5.120643E1,1.2938606E2],"tree_param":{"num_deleted":"0","num_feature":"19","num_nodes":"7","size_leaf_vector":"1"}},{"base_weights":[-4.5170777E-2,3.0016148E-1,-3.2357493E-1,2.1513835E-2,1E-1,1.0781637E-2,-5.711619E-2],"categories":[],"categories_nodes":[],"categories_segments":[],"categories_sizes":[],"default_left":[0,0,0,0,0,0,0],"id":21,"left_children":[1,3,5,-1,-1,-1,-1],"loss_changes":[1.2094843E2,4.5486374E1,7.450654E1,0E0,0E0,0E0,0E0],"parents":[2147483647,0,0,1,1,2,2],"right_children":[2,4,6,-1,-1,-1,-1],"split_conditions":[3.3333334E-1,1.0611021E-2,1.6901408E-1,2.1513835E-2,1E-1,1.0781637E-2,-5.711619E-2],"split_indices":[16,16,4,0,0,0,0],"split_type":[0,0,0,0,0,0,0],"sum_hessian":[1.2547812E3,5.5987524E2,6.94906E2,5.2043085E2,3.94444E1,2.5345354E2,4.4145248E2],"tree_param":{"num_deleted":"0","num_feature":"19","num_nodes":"7","size_leaf_vector":"1"}},{"base_weights":[-4.6249773E-2,1.7688985E-1,-4.053898E-1,1.0342605E-2,1E-1,-5.7327785E-2,1.7116614E-2],"categories":[],"categories_nodes":[],"categories_segments":[],"categories_sizes":[],"default_left":[0,0,0,0,0,0,0],"id":22,"left_children":[1,3,5,-1,-1,-1,-1],"loss_changes":[9.981946E1,6.4159775E1,4.6362938E1,0E0,0E0,0E0,0E0],"parents":[2147483647,0,0,1,1,2,2],"right_children":[2,4,6,-1,-1,-1,-1],"split_conditions":[5E-1,2.9313713E-4,7.942202E-1,1.0342605E-2,1E-1,-5.7327785E-2,1.7116614E-2],"split_indices":[11,11,17,0,0,0,0],"split_type":[0,0,0,0,0,0,0],"sum_hessian":[1.2420712E3,7.6622925E2,4.7584186E2,7.267278E2,3.950148E1,3.6866806E2,1.07173805E2],"tree_param":{"num_deleted":"0","num_feature":"19","num_nodes":"7","size_leaf_vector":"1"}},{"base_weights":[-1.7470468E-2,9.780075E-2,-7.572412E-1,-2.2275697E-2,3.0772781E-2,-1E-1,-3.2548074E-2],"categories":[],"categories_nodes":[],"categories_segments":[],"categories_sizes":[],"default_left":[0,0,0,0,0,0,0],"id":23,"left_children":[1,3,5,-1,-1,-1,-1],"loss_changes":[1.06591934E2,7.2781784E1,1.8664764E1,0E0,0E0,0E0,0E0],"parents":[2147483647,0,0,1,1,2,2],"right_children":[2,4,6,-1,-1,-1,-1],"split_conditions":[1E0,5.0040764E-1,7.508417E-1,-2.2275697E-2,3.0772781E-2,-1E-1,-3.2548074E-2],"split_indices":[14,17,17,0,0,0,0],"split_type":[0,0,0,0,0,0,0],"sum_hessian":[1.2453832E3,1.0781226E3,1.6726064E2,4.2642935E2,6.516932E2,1.03054955E2,6.420568E1],"tree_param":{"num_deleted":"0","num_feature":"19","num_nodes":"7","size_leaf_vector":"1"}},{"base_weights":[-5.927778E-3,2.808823E-1,-2.388669E-1,2.0564042E-2,1E-1,2.2567514E-2,-4.1219022E-2],"categories":[],"categories_nodes":[],"categories_segments":[],"categories_sizes":[],"default_left":[0,0,0,0,0,0,0],"id":24,"left_children":[1,3,5,-1,-1,-1,-1],"loss_changes":[8.249727E1,3.9510063E1,5.5004044E1,0E0,0E0,0E0,0E0],"parents":[2147483647,0,0,1,1,2,2],"right_children":[2,4,6,-1,-1,-1,-1],"split_conditions":[3.3333334E-1,1.0611021E-2,9.859155E-2,2.0564042E-2,1E-1,2.2567514E-2,-4.1219022E-2],"split_indices":[16,16,4,0,0,0,0],"split_type":[0,0,0,0,0,0,0],"sum_hessian":[1.2313379E3,5.515715E2,6.797664E2,5.1607263E2,3.5498817E1,1.8446999E2,4.9529645E2],"tree_param":{"num_deleted":"0","num_feature":"19","num_nodes":"7","size_leaf_vector":"1"}},{"base_weights":[-2.7101226E-2,7.094277E-2,-6.891478E-1,-2.120331E-2,2.7037341E-2,-9.6283235E-2,-2.4010392E-2],"categories":[],"categories_nodes":[],"categories_segments":[],"categories_sizes":[],"default_left":[0,0,0,0,0,0,0],"id":25,"left_children":[1,3,5,-1,-1,-1,-1],"loss_changes":[7.920485E1,5.9974392E1,1.9059692E1,0E0,0E0,0E0,0E0],"parents":[2147483647,0,0,1,1,2,2],"right_children":[2,4,6,-1,-1,-1,-1],"split_conditions":[1E0,5.127055E-1,7.508417E-1,-2.120331E-2,2.7037341E-2,-9.6283235E-2,-2.4010392E-2],"split_indices":[14,17,17,0,0,0,0],"split_type":[0,0,0,0,0,0,0],"sum_hessian":[1.2152678E3,1.0591566E3,1.5611116E2,4.3763025E2,6.215264E2,9.614533E1,5.9965824E1],"tree_param":{"num_deleted":"0","num_feature":"19","num_nodes":"7","size_leaf_vector":"1"}},{"base_weights":[-8.7212786E-5,4.0003356E-1,-1.650039E-1,1.2800704E-2,7.169848E-2,-4.6930972E-2,1.2721511E-2],"categories":[],"categories_nodes":[],"categories_segments":[],"categories_sizes":[],"default_left":[0,0,0,0,0,0,0],"id":26,"left_children":[1,3,5,-1,-1,-1,-1],"loss_changes":[8.0055595E1,3.0393356E1,7.6506165E1,0E0,0E0,0E0,0E0],"parents":[2147483647,0,0,1,1,2,2],"right_children":[2,4,6,-1,-1,-1,-1],"split_conditions":[8.450704E-2,4.7234678E-1,6.3228697E-1,1.2800704E-2,7.169848E-2,-4.6930972E-2,1.2721511E-2],"split_indices":[4,17,17,0,0,0,0],"split_type":[0,0,0,0,0,0,0],"sum_hessian":[1.2098536E3,3.5252515E2,8.573284E2,1.9063237E2,1.6189278E2,4.1984937E2,4.3747906E2],"tree_param":{"num_deleted":"0","num_feature":"19","num_nodes":"7","size_leaf_vector":"1"}},{"base_weights":[-1.296498E-2,1.7001246E-1,-3.2265672E-1,9.375286E-3,1E-1,3.597829E-2,-4.0368963E-2],"categories":[],"categories_nodes":[],"categories_segments":[],"categories_sizes":[],"default_left":[0,0,0,0,0,0,0],"id":27,"left_children":[1,3,5,-1,-1,-1,-1],"loss_changes":[6.93374E1,6.744777E1,2.5338829E1,0E0,0E0,0E0,0E0],"parents":[2147483647,0,0,1,1,2,2],"right_children":[2,4,6,-1,-1,-1,-1],"split_conditions":[5E-1,2.9313713E-4,1.4084507E-2,9.375286E-3,1E-1,3.597829E-2,-4.0368963E-2],"split_indices":[11,11,4,0,0,0,0],"split_type":[0,0,0,0,0,0,0],"sum_hessian":[1.2196722E3,7.6676624E2,4.5290598E2,7.263506E2,4.041565E1,4.7574116E1,4.0533185E2],"tree_param":{"num_deleted":"0","num_feature":"19","num_nodes":"7","size_leaf_vector":"1"}},{"base_weights":[-1.4017555E-2,1.1991162E-1,-3.7021133E-1,8.39993E-3,1E-1,-6.056297E-2,1.7732041E-2],"categories":[],"categories_nodes":[],"categories_segments":[],"categories_sizes":[],"default_left":[0,0,0,0,0,0,0],"id":28,"left_children":[1,3,5,-1,-1,-1,-1],"loss_changes":[5.7249012E1,3.6966507E1,4.2438446E1,0E0,0E0,0E0,0E0],"parents":[2147483647,0,0,1,1,2,2],"right_children":[2,4,6,-1,-1,-1,-1],"split_conditions":[5E-1,3.7582489E-3,8.330842E-1,8.39993E-3,1E-1,-6.056297E-2,1.7732041E-2],"split_indices":[14,14,17,0,0,0,0],"split_type":[0,0,0,0,0,0,0],"sum_hessian":[1.1956184E3,8.691862E2,3.264322E2,8.475491E2,2.163717E1,2.2833368E2,9.8098495E1],"tree_param":{"num_deleted":"0","num_feature":"19","num_nodes":"7","size_leaf_vector":"1"}},{"base_weights":[1.2965825E-2,1.9457367E-1,-3.0482444E-1,1.0191216E-2,1E-1,-1.2964027E-2,-6.0735673E-2],"categories":[],"categories_nodes":[],"categories_segments":[],"categories_sizes":[],"default_left":[0,0,0,0,0,0,0],"id":29,"left_children":[1,3,5,-1,-1,-1,-1],"loss_changes":[6.862181E1,8.1673004E1,2.2811558E1,0E0,0E0,0E0,0E0],"parents":[2147483647,0,0,1,1,2,2],"right_children":[2,4,6,-1,-1,-1,-1],"split_conditions":[5E-1,1.0329448E-3,5.7746476E-1,1.0191216E-2,1E-1,-1.2964027E-2,-6.0735673E-2],"split_indices":[8,8,4,0,0,0,0],"split_type":[0,0,0,0,0,0,0],"sum_hessian":[1.1854917E3,7.5483057E2,4.3066116E2,7.094324E2,4.53982E1,2.738467E2,1.5681445E2],"tree_param":{"num_deleted":"0","num_feature":"19","num_nodes":"7","size_leaf_vector":"1"}},{"base_weights":[4.9940455E-3,2.2798078E-1,-2.0186974E-1,3.8070574E-2,-4.8945392E-3,-5.8414318E-2,-2.8858262E-3],"categories":[],"categories_nodes":[],"categories_segments":[],"categories_sizes":[],"default_left":[0,0,0,0,0,0,0],"id":30,"left_children":[1,3,5,-1,-1,-1,-1],"loss_changes":[5.5212154E1,2.4424856E1,4.0990334E1,0E0,0E0,0E0,0E0],"parents":[2147483647,0,0,1,1,2,2],"right_children":[2,4,6,-1,-1,-1,-1],"split_conditions":[2.3943663E-1,2.8604906E-2,2.9303194E-3,3.8070574E-2,-4.8945392E-3,-5.8414318E-2,-2.8858262E-3],"split_indices":[4,15,13,0,0,0,0],"split_type":[0,0,0,0,0,0,0],"sum_hessian":[1.1930403E3,5.743292E2,6.187111E2,3.7016782E2,2.0416144E2,1.9185284E2,4.2685825E2],"tree_param":{"num_deleted":"0","num_feature":"19","num_nodes":"7","size_leaf_vector":"1"}},{"base_weights":[2.0908605E-2,-2.2206368E-1,1.9216031E-1,1.0666408E-2,-5.4764695E-2,2.388691E-2,-1E-1],"categories":[],"categories_nodes":[],"categories_segments":[],"categories_sizes":[],"default_left":[0,0,0,0,0,0,0],"id":31,"left_children":[1,3,5,-1,-1,-1,-1],"loss_changes":[4.9045086E1,5.224266E1,4.2087616E1,0E0,0E0,0E0,0E0],"parents":[2147483647,0,0,1,1,2,2],"right_children":[2,4,6,-1,-1,-1,-1],"split_conditions":[5.127055E-1,1.2676056E-1,1E0,1.0666408E-2,-5.4764695E-2,2.388691E-2,-1E-1],"split_indices":[17,4,4,0,0,0,0],"split_type":[0,0,0,0,0,0,0],"sum_hessian":[1.1748574E3,4.853546E2,6.895028E2,2.416928E2,2.4366182E2,6.664844E2,2.3018429E1],"tree_param":{"num_deleted":"0","num_feature":"19","num_nodes":"7","size_leaf_vector":"1"}},{"base_weights":[1.9592104E-2,9.250586E-2,-5.407863E-1,-1.02728065E-2,2.9968908E-2,-8.253551E-2,-0E0],"categories":[],"categories_nodes":[],"categories_segments":[],"categories_sizes":[],"default_left":[0,0,0,0,0,0,0],"id":32,"left_children":[1,3,5,-1,-1,-1,-1],"loss_changes":[4.7576622E1,4.171769E1,2.0692448E1,0E0,0E0,0E0,0E0],"parents":[2147483647,0,0,1,1,2,2],"right_children":[2,4,6,-1,-1,-1,-1],"split_conditions":[1E0,5.769806E-1,8.226208E-1,-1.02728065E-2,2.9968908E-2,-8.253551E-2,-0E0],"split_indices":[14,17,17,0,0,0,0],"split_type":[0,0,0,0,0,0,0],"sum_hessian":[1.1602704E3,1.02758E3,1.3269041E2,5.2905743E2,4.9852252E2,8.6686874E1,4.6003536E1],"tree_param":{"num_deleted":"0","num_feature":"19","num_nodes":"7","size_leaf_vector":"1"}},{"base_weights":[3.513329E-3,3.1904292E-1,-1.0957561E-1,4.6035692E-2,4.347602E-4,-3.6871016E-2,1.4225567E-2],"categories":[],"categories_nodes":[],"categories_segments":[],"categories_sizes":[],"default_left":[0,0,0,0,0,0,0],"id":33,"left_children":[1,3,5,-1,-1,-1,-1],"loss_changes":[4.132638E1,1.3545191E1,5.563696E1,0E0,0E0,0E0,0E0],"parents":[2147483647,0,0,1,1,2,2],"right_children":[2,4,6,-1,-1,-1,-1],"split_conditions":[7.042254E-2,4.652976E-1,6.3228697E-1,4.6035692E-2,4.347602E-4,-3.6871016E-2,1.4225567E-2],"split_indices":[4,8,17,0,0,0,0],"split_type":[0,0,0,0,0,0,0],"sum_hessian":[1.1532068E3,3.0402087E2,8.49186E2,2.0926826E2,9.4752594E1,4.1849118E2,4.3069476E2],"tree_param":{"num_deleted":"0","num_feature":"19","num_nodes":"7","size_leaf_vector":"1"}},{"base_weights":[6.059682E-3,1.8639569E-1,-2.1783769E-1,1.0617232E-3,5.106746E-2,-4.255278E-2,1.0621476E-2],"categories":[],"categories_nodes":[],"categories_segments":[],"categories_sizes":[],"default_left":[0,0,0,0,0,0,0],"id":34,"left_children":[1,3,5,-1,-1,-1,-1],"loss_changes":[4.589797E1,3.585183E1,3.4197777E1,0E0,0E0,0E0,0E0],"parents":[2147483647,0,0,1,1,2,2],"right_children":[2,4,6,-1,-1,-1,-1],"split_conditions":[3.2394367E-1,5.769806E-1,7.708022E-1,1.0617232E-3,5.106746E-2,-4.255278E-2,1.0621476E-2],"split_indices":[4,17,17,0,0,0,0],"split_type":[0,0,0,0,0,0,0],"sum_hessian":[1.1328422E3,6.278004E2,5.0504178E2,4.0798782E2,2.1981258E2,3.077778E2,1.9726396E2],"tree_param":{"num_deleted":"0","num_feature":"19","num_nodes":"7","size_leaf_vector":"1"}},{"base_weights":[3.779141E-4,6.85803E-2,-5.5017024E-1,5.181135E-2,-1.4957192E-5,-1.4538472E-2,-7.696494E-2],"categories":[],"categories_nodes":[],"categories_segments":[],"categories_sizes":[],"default_left":[0,0,0,0,0,0,0],"id":35,"left_children":[1,3,5,-1,-1,-1,-1],"loss_changes":[4.3165684E1,3.1694542E1,1.1093132E1,0E0,0E0,0E0,0E0],"parents":[2147483647,0,0,1,1,2,2],"right_children":[2,4,6,-1,-1,-1,-1],"split_conditions":[1E0,1.4084507E-2,4.8952752E-1,5.181135E-2,-1.4957192E-5,-1.4538472E-2,-7.696494E-2],"split_indices":[14,4,8,0,0,0,0],"split_type":[0,0,0,0,0,0,0],"sum_hessian":[1.1455762E3,1.02024445E3,1.253317E2,1.346264E2,8.8561804E2,4.4808804E1,8.0522896E1],"tree_param":{"num_deleted":"0","num_feature":"19","num_nodes":"7","size_leaf_vector":"1"}},{"base_weights":[-2.6188387E-2,-3.1098926E-1,9.895574E-2,-6.2827915E-2,-1.5984824E-2,1E-1,1.0464474E-3],"categories":[],"categories_nodes":[],"categories_segments":[],"categories_sizes":[],"default_left":[0,0,0,0,0,0,0],"id":36,"left_children":[1,3,5,-1,-1,-1,-1],"loss_changes":[4.0074783E1,1.6347088E1,8.577058E1,0E0,0E0,0E0,0E0],"parents":[2147483647,0,0,1,1,2,2],"right_children":[2,4,6,-1,-1,-1,-1],"split_conditions":[1.10617755E-2,9.116291E-3,5E-1,-6.2827915E-2,-1.5984824E-2,1E-1,1.0464474E-3],"split_indices":[9,7,9,0,0,0,0],"split_type":[0,0,0,0,0,0,0],"sum_hessian":[1.1197845E3,3.4162784E2,7.7815674E2,1.0899547E2,2.3263237E2,4.449076E1,7.33666E2],"tree_param":{"num_deleted":"0","num_feature":"19","num_nodes":"7","size_leaf_vector":"1"}},{"base_weights":[-1.5774539E-2,5.2559674E-2,-6.115349E-1,-3.8539309E-3,4.1710816E-2,-8.3539836E-2,-3.4239378E-2],"categories":[],"categories_nodes":[],"categories_segments":[],"categories_sizes":[],"default_left":[0,0,0,0,0,0,0],"id":37,"left_children":[1,3,5,-1,-1,-1,-1],"loss_changes":[4.5686493E1,3.3434826E1,6.64756E0,0E0,0E0,0E0,0E0],"parents":[2147483647,0,0,1,1,2,2],"right_children":[2,4,6,-1,-1,-1,-1],"split_conditions":[9.895275E-1,7.727952E-1,7.508417E-1,-3.8539309E-3,4.1710816E-2,-8.3539836E-2,-3.4239378E-2],"split_indices":[14,17,17,0,0,0,0],"split_type":[0,0,0,0,0,0,0],"sum_hessian":[1.1158726E3,1.0017185E3,1.1415403E2,8.019379E2,1.9978061E2,6.096756E1,5.318647E1],"tree_param":{"num_deleted":"0","num_feature":"19","num_nodes":"7","size_leaf_vector":"1"}},{"base_weights":[2.8044809E-2,3.1813535E-1,-7.7248625E-2,4.637973E-2,7.640631E-3,-3.3467453E-2,1.2084859E-2],"categories":[],"categories_nodes":[],"categories_segments":[],"categories_sizes":[],"default_left":[0,0,0,0,0,0,0],"id":38,"left_children":[1,3,5,-1,-1,-1,-1],"loss_changes":[3.4387085E1,1.0489698E1,4.213769E1,0E0,0E0,0E0,0E0],"parents":[2147483647,0,0,1,1,2,2],"right_children":[2,4,6,-1,-1,-1,-1],"split_conditions":[7.042254E-2,3.3969727E-1,6.058794E-1,4.637973E-2,7.640631E-3,-3.3467453E-2,1.2084859E-2],"split_indices":[4,15,17,0,0,0,0],"split_type":[0,0,0,0,0,0,0],"sum_hessian":[1.1207997E3,2.9819116E2,8.226085E2,1.8523764E2,1.1295352E2,3.5765448E2,4.6495404E2],"tree_param":{"num_deleted":"0","num_feature":"19","num_nodes":"7","size_leaf_vector":"1"}},{"base_weights":[3.4853E-3,6.5768324E-2,-4.164601E-1,-2.0661158E-3,4.8853964E-2,-1.4453572E-2,-6.921201E-2],"categories":[],"categories_nodes":[],"categories_segments":[],"categories_sizes":[],"default_left":[0,0,0,0,0,0,0],"id":39,"left_children":[1,3,5,-1,-1,-1,-1],"loss_changes":[2.850383E1,3.475508E1,1.0413078E1,0E0,0E0,0E0,0E0],"parents":[2147483647,0,0,1,1,2,2],"right_children":[2,4,6,-1,-1,-1,-1],"split_conditions":[8.309859E-1,7.727952E-1,4.9743316E-1,-2.0661158E-3,4.8853964E-2,-1.4453572E-2,-6.921201E-2],"split_indices":[4,17,8,0,0,0,0],"split_type":[0,0,0,0,0,0,0],"sum_hessian":[1.0854176E3,9.461705E2,1.3924712E2,7.8616504E2,1.6000548E2,7.1048515E1,6.819859E1],"tree_param":{"num_deleted":"0","num_feature":"19","num_nodes":"7","size_leaf_vector":"1"}},{"base_weights":[2.7752372E-2,2.1164103E-1,-1.23800315E-1,1.3481125E-2,1E-1,-2.2585247E-2,3.663064E-2],"categories":[],"categories_nodes":[],"categories_segments":[],"categories_sizes":[],"default_left":[0,0,0,0,0,0,0],"id":40,"left_children":[1,3,5,-1,-1,-1,-1],"loss_changes":[3.0689627E1,3.8102135E1,3.0278282E1,0E0,0E0,0E0,0E0],"parents":[2147483647,0,0,1,1,2,2],"right_children":[2,4,6,-1,-1,-1,-1],"split_conditions":[3.3333334E-1,1.0611021E-2,7.941937E-2,1.3481125E-2,1E-1,-2.2585247E-2,3.663064E-2],"split_indices":[16,16,1,0,0,0,0],"split_type":[0,0,0,0,0,0,0],"sum_hessian":[1.0967538E3,4.9563327E2,6.011205E2,4.6360388E2,3.202937E1,4.9813904E2,1.0298145E2],"tree_param":{"num_deleted":"0","num_feature":"19","num_nodes":"7","size_leaf_vector":"1"}},{"base_weights":[-2.3113314E-2,5.4228686E-2,-4.3829384E-1,-1.0900215E-4,1E-1,-7.434295E-2,-1.1353111E-2],"categories":[],"categories_nodes":[],"categories_segments":[],"categories_sizes":[],"default_left":[0,0,0,0,0,0,0],"id":41,"left_children":[1,3,5,-1,-1,-1,-1],"loss_changes":[3.5440685E1,7.104901E1,1.7044094E1,0E0,0E0,0E0,0E0],"parents":[2147483647,0,0,1,1,2,2],"right_children":[2,4,6,-1,-1,-1,-1],"split_conditions":[1E0,6.7719537E-1,1.0329448E-3,-1.0900215E-4,1E-1,-7.434295E-2,-1.1353111E-2],"split_indices":[16,16,8,0,0,0,0],"split_type":[0,0,0,0,0,0,0],"sum_hessian":[1.0978367E3,9.259705E2,1.718661E2,8.9785876E2,2.8111784E1,8.778724E1,8.407886E1],"tree_param":{"num_deleted":"0","num_feature":"19","num_nodes":"7","size_leaf_vector":"1"}},{"base_weights":[-5.399841E-3,4.7347617E-1,-7.226411E-2,2.7615754E-2,7.5984746E-2,-1.6277358E-2,2.3983365E-2],"categories":[],"categories_nodes":[],"categories_segments":[],"categories_sizes":[],"default_left":[0,0,0,0,0,0,0],"id":42,"left_children":[1,3,5,-1,-1,-1,-1],"loss_changes":[3.4988773E1,7.3392487E0,2.7133274E1,0E0,0E0,0E0,0E0],"parents":[2147483647,0,0,1,1,2,2],"right_children":[2,4,6,-1,-1,-1,-1],"split_conditions":[1.4084507E-2,4.1426504E-3,7.941937E-2,2.7615754E-2,7.5984746E-2,-1.6277358E-2,2.3983365E-2],"split_indices":[4,18,1,0,0,0,0],"split_type":[0,0,0,0,0,0,0],"sum_hessian":[1.088536E3,1.3243947E2,9.560965E2,7.978126E1,5.2658207E1,7.417773E2,2.1431923E2],"tree_param":{"num_deleted":"0","num_feature":"19","num_nodes":"7","size_leaf_vector":"1"}},{"base_weights":[-1.4055533E-2,1.6602392E-1,-1.585435E-1,8.426963E-3,1E-1,-2.2888979E-2,2.0599527E-2],"categories":[],"categories_nodes":[],"categories_segments":[],"categories_sizes":[],"default_left":[0,0,0,0,0,0,0],"id":43,"left_children":[1,3,5,-1,-1,-1,-1],"loss_changes":[2.8213253E1,4.1876152E1,1.55054865E1,0E0,0E0,0E0,0E0],"parents":[2147483647,0,0,1,1,2,2],"right_children":[2,4,6,-1,-1,-1,-1],"split_conditions":[3.3333334E-1,1.0611021E-2,7.941937E-2,8.426963E-3,1E-1,-2.2888979E-2,2.0599527E-2],"split_indices":[16,16,1,0,0,0,0],"split_type":[0,0,0,0,0,0,0],"sum_hessian":[1.07995E3,4.8038782E2,5.9956213E2,4.494204E2,3.0967417E1,5.031198E2,9.64423E1],"tree_param":{"num_deleted":"0","num_feature":"19","num_nodes":"7","size_leaf_vector":"1"}},{"base_weights":[4.3193214E-2,6.684088E-2,-9.9974483E-1,2.0109972E-2,-6.6576474E-3,-5.6809593E-2,-1E-1],"categories":[],"categories_nodes":[],"categories_segments":[],"categories_sizes":[],"default_left":[0,0,0,0,0,0,0],"id":44,"left_children":[1,3,5,-1,-1,-1,-1],"loss_changes":[2.697344E1,1.9115028E1,6.406593E-2,0E0,0E0,0E0,0E0],"parents":[2147483647,0,0,1,1,2,2],"right_children":[2,4,6,-1,-1,-1,-1],"split_conditions":[1E0,2.3943663E-1,6.751193E-1,2.0109972E-2,-6.6576474E-3,-5.6809593E-2,-1E-1],"split_indices":[4,4,18,0,0,0,0],"split_type":[0,0,0,0,0,0,0],"sum_hessian":[1.0854521E3,1.0623951E3,2.3057049E1,5.2964844E2,5.327467E2,5.1669803E0,1.7890068E1],"tree_param":{"num_deleted":"0","num_feature":"19","num_nodes":"7","size_leaf_vector":"1"}},{"base_weights":[2.0326447E-2,1.2428366E-1,-1.6423434E-1,2.6668527E-3,1E-1,-8.6229306E-4,-4.32891E-2],"categories":[],"categories_nodes":[],"categories_segments":[],"categories_sizes":[],"default_left":[0,0,0,0,0,0,0],"id":45,"left_children":[1,3,5,-1,-1,-1,-1],"loss_changes":[2.0742481E1,8.411098E1,1.6241074E1,0E0,0E0,0E0,0E0],"parents":[2147483647,0,0,1,1,2,2],"right_children":[2,4,6,-1,-1,-1,-1],"split_conditions":[5E-1,1.0329448E-3,4.9059308E-1,2.6668527E-3,1E-1,-8.6229306E-4,-4.32891E-2],"split_indices":[8,8,14,0,0,0,0],"split_type":[0,0,0,0,0,0,0],"sum_hessian":[1.0764506E3,6.891454E2,3.873052E2,6.475174E2,4.162803E1,2.4614012E2,1.4116508E2],"tree_param":{"num_deleted":"0","num_feature":"19","num_nodes":"7","size_leaf_vector":"1"}},{"base_weights":[1.4503854E-3,1.0177829E-1,-1.9725019E-1,3.807588E-2,4.608704E-4,2.2626722E-3,-3.0870572E-2],"categories":[],"categories_nodes":[],"categories_segments":[],"categories_sizes":[],"default_left":[0,0,0,0,0,0,0],"id":46,"left_children":[1,3,5,-1,-1,-1,-1],"loss_changes":[2.148817E1,1.939651E1,8.896432E0,0E0,0E0,0E0,0E0],"parents":[2147483647,0,0,1,1,2,2],"right_children":[2,4,6,-1,-1,-1,-1],"split_conditions":[1E0,8.450704E-2,2.5750207E-2,3.807588E-2,4.608704E-4,2.2626722E-3,-3.0870572E-2],"split_indices":[15,4,18,0,0,0,0],"split_type":[0,0,0,0,0,0,0],"sum_hessian":[1.0733868E3,7.139102E2,3.5947656E2,1.8340225E2,5.30508E2,1.2088911E2,2.3858745E2],"tree_param":{"num_deleted":"0","num_feature":"19","num_nodes":"7","size_leaf_vector":"1"}},{"base_weights":[2.3411233E-2,-5.0421655E-2,2.2428451E-1,-7.072181E-4,-6.767588E-2,-7.878132E-2,2.9772008E-2],"categories":[],"categories_nodes":[],"categories_segments":[],"categories_sizes":[],"default_left":[0,0,0,0,0,0,0],"id":47,"left_children":[1,3,5,-1,-1,-1,-1],"loss_changes":[1.6120241E1,2.1539793E1,2.2004642E1,0E0,0E0,0E0,0E0],"parents":[2147483647,0,0,1,1,2,2],"right_children":[2,4,6,-1,-1,-1,-1],"split_conditions":[7.508417E-1,8.854609E-1,2.4699904E-3,-7.072181E-4,-6.767588E-2,-7.878132E-2,2.9772008E-2],"split_indices":[17,14,12,0,0,0,0],"split_type":[0,0,0,0,0,0,0],"sum_hessian":[1.0806012E3,7.9035126E2,2.9024997E2,7.402862E2,5.0065067E1,1.8884998E1,2.71365E2],"tree_param":{"num_deleted":"0","num_feature":"19","num_nodes":"7","size_leaf_vector":"1"}},{"base_weights":[-6.1786217E-3,-9.899242E-2,2.4431898E-1,1.3745211E-2,-2.2440514E-2,-4.2101997E-3,5.6616392E-2],"categories":[],"categories_nodes":[],"categories_segments":[],"categories_sizes":[],"default_left":[0,0,0,0,0,0,0],"id":48,"left_children":[1,3,5,-1,-1,-1,-1],"loss_changes":[2.5166632E1,2.347057E1,2.70426E1,0E0,0E0,0E0,0E0],"parents":[2147483647,0,0,1,1,2,2],"right_children":[2,4,6,-1,-1,-1,-1],"split_conditions":[7.508417E-1,7.042254E-2,1.10617755E-2,1.3745211E-2,-2.2440514E-2,-4.2101997E-3,5.6616392E-2],"split_indices":[17,4,9,0,0,0,0],"split_type":[0,0,0,0,0,0,0],"sum_hessian":[1.0781376E3,7.8739703E2,2.9074054E2,2.7258694E2,5.148101E2,1.5413179E2,1.3660875E2],"tree_param":{"num_deleted":"0","num_feature":"19","num_nodes":"7","size_leaf_vector":"1"}},{"base_weights":[-2.4149655E-3,2.378014E-2,-7.04239E-1,3.766599E-2,-2.3200952E-3,-3.6857024E-2,-9.1330685E-2],"categories":[],"categories_nodes":[],"categories_segments":[],"categories_sizes":[],"default_left":[0,0,0,0,0,0,0],"id":49,"left_children":[1,3,5,-1,-1,-1,-1],"loss_changes":[1.9901817E1,1.7234526E1,2.3645802E0,0E0,0E0,0E0,0E0],"parents":[2147483647,0,0,1,1,2,2],"right_children":[2,4,6,-1,-1,-1,-1],"split_conditions":[9.859155E-1,1.4084507E-2,1E0,3.766599E-2,-2.3200952E-3,-3.6857024E-2,-9.1330685E-2],"split_indices":[4,4,4,0,0,0,0],"split_type":[0,0,0,0,0,0,0],"sum_hessian":[1.0690352E3,1.0313638E3,3.767132E1,1.2060425E2,9.107596E2,1.5702083E1,2.1969238E1],"tree_param":{"num_deleted":"0","num_feature":"19","num_nodes":"7","size_leaf_vector":"1"}},{"base_weights":[1.2398438E-3,-1.9904824E-1,9.51879E-2,-4.5291793E-2,-9.7322175E-3,1E-1,1.5954738E-3],"categories":[],"categories_nodes":[],"categories_segments":[],"categories_sizes":[],"default_left":[0,0,0,0,0,0,0],"id":50,"left_children":[1,3,5,-1,-1,-1,-1],"loss_changes":[1.9992361E1,8.702328E0,6.8954094E1,0E0,0E0,0E0,0E0],"parents":[2147483647,0,0,1,1,2,2],"right_children":[2,4,6,-1,-1,-1,-1],"split_conditions":[1.10617755E-2,5.71998E-1,5E-1,-4.5291793E-2,-9.7322175E-3,1E-1,1.5954738E-3],"split_indices":[9,17,9,0,0,0,0],"split_type":[0,0,0,0,0,0,0],"sum_hessian":[1.0579119E3,3.3708862E2,7.208232E2,9.516287E1,2.4192575E2,3.9302326E1,6.815209E2],"tree_param":{"num_deleted":"0","num_feature":"19","num_nodes":"7","size_leaf_vector":"1"}},{"base_weights":[-2.834689E-3,6.147036E-2,-3.423572E-1,-6.992272E-4,4.5425188E-2,-1E-1,-1.714992E-2],"categories":[],"categories_nodes":[],"categories_segments":[],"categories_sizes":[],"default_left":[0,0,0,0,0,0,0],"id":51,"left_children":[1,3,5,-1,-1,-1,-1],"loss_changes":[2.3036987E1,2.386561E1,2.0349602E1,0E0,0E0,0E0,0E0],"parents":[2147483647,0,0,1,1,2,2],"right_children":[2,4,6,-1,-1,-1,-1],"split_conditions":[7.605634E-1,7.7499837E-1,3.7582489E-3,-6.992272E-4,4.5425188E-2,-1E-1,-1.714992E-2],"split_indices":[4,17,14,0,0,0,0],"split_type":[0,0,0,0,0,0,0],"sum_hessian":[1.0482211E3,8.817444E2,1.6647664E2,7.514864E2,1.3025803E2,3.0800406E1,1.3567622E2],"tree_param":{"num_deleted":"0","num_feature":"19","num_nodes":"7","size_leaf_vector":"1"}},{"base_weights":[4.3803835E-3,9.540646E-2,-1.7929405E-1,-1.25737535E-2,2.127106E-2,-1.1406208E-2,-6.9442935E-2],"categories":[],"categories_nodes":[],"categories_segments":[],"categories_sizes":[],"default_left":[0,0,0,0,0,0,0],"id":52,"left_children":[1,3,5,-1,-1,-1,-1],"loss_changes":[1.7734934E1,1.8444233E1,1.173486E1,0E0,0E0,0E0,0E0],"parents":[2147483647,0,0,1,1,2,2],"right_children":[2,4,6,-1,-1,-1,-1],"split_conditions":[1E0,1.10617755E-2,6.5312684E-1,-1.25737535E-2,2.127106E-2,-1.1406208E-2,-6.9442935E-2],"split_indices":[15,9,14,0,0,0,0],"split_type":[0,0,0,0,0,0,0],"sum_hessian":[1.056E3,7.0676416E2,3.4923587E2,2.4463991E2,4.6212424E2,3.1123898E2,3.799688E1],"tree_param":{"num_deleted":"0","num_feature":"19","num_nodes":"7","size_leaf_vector":"1"}},{"base_weights":[1.4894149E-2,-2.6584813E-1,6.839677E-2,-6.204663E-3,-8.0260314E-2,4.7717918E-2,2.5906987E-3],"categories":[],"categories_nodes":[],"categories_segments":[],"categories_sizes":[],"default_left":[0,0,0,0,0,0,0],"id":53,"left_children":[1,3,5,-1,-1,-1,-1],"loss_changes":[1.6028906E1,1.8586447E1,1.5551044E1,0E0,0E0,0E0,0E0],"parents":[2147483647,0,0,1,1,2,2],"right_children":[2,4,6,-1,-1,-1,-1],"split_conditions":[1.2107623E-1,2.3943663E-1,1E0,-6.204663E-3,-8.0260314E-2,4.7717918E-2,2.5906987E-3],"split_indices":[17,4,5,0,0,0,0],"split_type":[0,0,0,0,0,0,0],"sum_hessian":[1.0619908E3,1.6905853E2,8.929324E2,1.23477165E2,4.5581367E1,8.28897E1,8.1004266E2],"tree_param":{"num_deleted":"0","num_feature":"19","num_nodes":"7","size_leaf_vector":"1"}},{"base_weights":[-1.5379675E-3,-1.3501851E-1,1.3623714E-1,5.623642E-3,-2.9080218E-2,4.921077E-2,-4.7834157E-3],"categories":[],"categories_nodes":[],"categories_segments":[],"categories_sizes":[],"default_left":[0,0,0,0,0,0,0],"id":54,"left_children":[1,3,5,-1,-1,-1,-1],"loss_changes":[1.9355724E1,1.5976225E1,3.3956997E1,0E0,0E0,0E0,0E0],"parents":[2147483647,0,0,1,1,2,2],"right_children":[2,4,6,-1,-1,-1,-1],"split_conditions":[5.769806E-1,2.9212032E-2,2.0433998E-1,5.623642E-3,-2.9080218E-2,4.921077E-2,-4.7834157E-3],"split_indices":[17,18,18,0,0,0,0],"split_type":[0,0,0,0,0,0,0],"sum_hessian":[1.0475698E3,5.3245636E2,5.151134E2,2.3901535E2,2.93441E2,1.7522177E2,3.3989166E2],"tree_param":{"num_deleted":"0","num_feature":"19","num_nodes":"7","size_leaf_vector":"1"}},{"base_weights":[-2.5591187E-2,4.6180926E-2,-2.7503756E-1,1.9391472E-2,-1.0696666E-2,-6.467508E-2,-9.301346E-3],"categories":[],"categories_nodes":[],"categories_segments":[],"categories_sizes":[],"default_left":[0,0,0,0,0,0,0],"id":55,"left_children":[1,3,5,-1,-1,-1,-1],"loss_changes":[1.8529568E1,1.8184158E1,1.5556387E1,0E0,0E0,0E0,0E0],"parents":[2147483647,0,0,1,1,2,2],"right_children":[2,4,6,-1,-1,-1,-1],"split_conditions":[1E0,2.3943663E-1,3.6522174E-1,1.9391472E-2,-1.0696666E-2,-6.467508E-2,-9.301346E-3],"split_indices":[3,4,17,0,0,0,0],"split_type":[0,0,0,0,0,0,0],"sum_hessian":[1.0286907E3,7.9916455E2,2.2952612E2,4.0696887E2,3.9219568E2,7.442981E1,1.5509631E2],"tree_param":{"num_deleted":"0","num_feature":"19","num_nodes":"7","size_leaf_vector":"1"}},{"base_weights":[7.7003213E-3,6.8317E-2,-3.1706572E-1,1.1381459E-3,1E-1,-2.2721495E-2,-9.119665E-2],"categories":[],"categories_nodes":[],"categories_segments":[],"categories_sizes":[],"default_left":[0,0,0,0,0,0,0],"id":56,"left_children":[1,3,5,-1,-1,-1,-1],"loss_changes":[2.0808764E1,6.8148926E1,8.694902E0,0E0,0E0,0E0,0E0],"parents":[2147483647,0,0,1,1,2,2],"right_children":[2,4,6,-1,-1,-1,-1],"split_conditions":[1E0,6.7719537E-1,9.43662E-1,1.1381459E-3,1E-1,-2.2721495E-2,-9.119665E-2],"split_indices":[16,16,4,0,0,0,0],"split_type":[0,0,0,0,0,0,0],"sum_hessian":[1.052347E3,8.877487E2,1.6459828E2,8.590905E2,2.8658258E1,1.443469E2,2.0251387E1],"tree_param":{"num_deleted":"0","num_feature":"19","num_nodes":"7","size_leaf_vector":"1"}},{"base_weights":[6.421923E-3,-1.4168167E-1,1.12947606E-1,-7.195388E-3,-7.807871E-2,1E-1,4.678735E-3],"categories":[],"categories_nodes":[],"categories_segments":[],"categories_sizes":[],"default_left":[0,0,0,0,0,0,0],"id":57,"left_children":[1,3,5,-1,-1,-1,-1],"loss_changes":[1.6333101E1,1.9229546E1,4.738301E1,0E0,0E0,0E0,0E0],"parents":[2147483647,0,0,1,1,2,2],"right_children":[2,4,6,-1,-1,-1,-1],"split_conditions":[2.9303194E-3,6.760563E-1,5E-1,-7.195388E-3,-7.807871E-2,1E-1,4.678735E-3],"split_indices":[13,4,13,0,0,0,0],"split_type":[0,0,0,0,0,0,0],"sum_hessian":[1.0302795E3,4.304928E2,5.997867E2,3.892895E2,4.120329E1,2.7240364E1,5.725463E2],"tree_param":{"num_deleted":"0","num_feature":"19","num_nodes":"7","size_leaf_vector":"1"}},{"base_weights":[5.795595E-3,-3.3051068E-1,6.8299554E-2,-4.2731423E-2,7.0095524E-2,8.937035E-3,-9.7011864E-2],"categories":[],"categories_nodes":[],"categories_segments":[],"categories_sizes":[],"default_left":[0,0,0,0,0,0,0],"id":58,"left_children":[1,3,5,-1,-1,-1,-1],"loss_changes":[2.1521832E1,1.6390251E1,1.904585E1,0E0,0E0,0E0,0E0],"parents":[2147483647,0,0,1,1,2,2],"right_children":[2,4,6,-1,-1,-1,-1],"split_conditions":[1.15595415E-1,7.941937E-2,1E0,-4.2731423E-2,7.0095524E-2,8.937035E-3,-9.7011864E-2],"split_indices":[17,1,4,0,0,0,0],"split_type":[0,0,0,0,0,0,0],"sum_hessian":[1.0192851E3,1.5882579E2,8.6045935E2,1.458229E2,1.3002877E1,8.443369E2,1.6122408E1],"tree_param":{"num_deleted":"0","num_feature":"19","num_nodes":"7","size_leaf_vector":"1"}},{"base_weights":[4.31789E-3,-1.2724474E-1,1.0933884E-1,-2.8785784E-3,-8.511285E-2,-1.421938E-2,2.189604E-2],"categories":[],"categories_nodes":[],"categories_segments":[],"categories_sizes":[],"default_left":[0,0,0,0,0,0,0],"id":59,"left_children":[1,3,5,-1,-1,-1,-1],"loss_changes":[1.4251787E1,3.2541172E1,1.5866741E1,0E0,0E0,0E0,0E0],"parents":[2147483647,0,0,1,1,2,2],"right_children":[2,4,6,-1,-1,-1,-1],"split_conditions":[5.366218E-1,1E0,5.03921E-1,-2.8785784E-3,-8.511285E-2,-1.421938E-2,2.189604E-2],"split_indices":[17,6,6,0,0,0,0],"split_type":[0,0,0,0,0,0,0],"sum_hessian":[1.0262406E3,4.5503812E2,5.712025E2,4.0159335E2,5.344476E1,1.730107E2,3.9819183E2],"tree_param":{"num_deleted":"0","num_feature":"19","num_nodes":"7","size_leaf_vector":"1"}},{"base_weights":[1.0962312E-2,-1.6958855E-1,9.0957254E-2,1.742101E-2,-3.5123385E-2,1E-1,5.1975637E-3],"categories":[],"categories_nodes":[],"categories_segments":[],"categories_sizes":[],"default_left":[0,0,0,0,0,0,0],"id":60,"left_children":[1,3,5,-1,-1,-1,-1],"loss_changes":[1.4965659E1,1.9938965E1,3.57343E1,0E0,0E0,0E0,0E0],"parents":[2147483647,0,0,1,1,2,2],"right_children":[2,4,6,-1,-1,-1,-1],"split_conditions":[9.116291E-3,5E-1,5E-1,1.742101E-2,-3.5123385E-2,1E-1,5.1975637E-3],"split_indices":[7,6,7,0,0,0,0],"split_type":[0,0,0,0,0,0,0],"sum_hessian":[1.0311969E3,3.1587897E2,7.153179E2,1.0902277E2,2.0685619E2,1.6815823E1,6.985021E2],"tree_param":{"num_deleted":"0","num_feature":"19","num_nodes":"7","size_leaf_vector":"1"}},{"base_weights":[3.3684608E-2,9.839548E-2,-1.904765E-1,1.3295989E-2,-3.9488267E-2,-5.3405732E-2,-4.5950445E-3],"categories":[],"categories_nodes":[],"categories_segments":[],"categories_sizes":[],"default_left":[0,0,0,0,0,0,0],"id":61,"left_children":[1,3,5,-1,-1,-1,-1],"loss_changes":[1.5094952E1,1.3842072E1,1.15241785E1,0E0,0E0,0E0,0E0],"parents":[2147483647,0,0,1,1,2,2],"right_children":[2,4,6,-1,-1,-1,-1],"split_conditions":[1E0,1E0,3.223717E-1,1.3295989E-2,-3.9488267E-2,-5.3405732E-2,-4.5950445E-3],"split_indices":[3,14,17,0,0,0,0],"split_type":[0,0,0,0,0,0,0],"sum_hessian":[1.0354491E3,8.042773E2,2.3117177E2,7.5248334E2,5.179395E1,6.744591E1,1.6372586E2],"tree_param":{"num_deleted":"0","num_feature":"19","num_nodes":"7","size_leaf_vector":"1"}},{"base_weights":[2.280073E-2,-2.4429956E-1,6.576952E-2,-7.7970102E-3,-7.7126846E-2,-5.5002267E-3,1.7951535E-2],"categories":[],"categories_nodes":[],"categories_segments":[],"categories_sizes":[],"default_left":[0,0,0,0,0,0,0],"id":62,"left_children":[1,3,5,-1,-1,-1,-1],"loss_changes":[1.1756777E1,1.23498955E1,1.2136023E1,0E0,0E0,0E0,0E0],"parents":[2147483647,0,0,1,1,2,2],"right_children":[2,4,6,-1,-1,-1,-1],"split_conditions":[7.1250625E-2,3.6886796E-1,2.9303194E-3,-7.7970102E-3,-7.7126846E-2,-5.5002267E-3,1.7951535E-2],"split_indices":[17,14,13,0,0,0,0],"split_type":[0,0,0,0,0,0,0],"sum_hessian":[1.0185288E3,1.4017401E2,8.7835486E2,1.075616E2,3.2612408E1,4.2584406E2,4.5251077E2],"tree_param":{"num_deleted":"0","num_feature":"19","num_nodes":"7","size_leaf_vector":"1"}},{"base_weights":[-7.558309E-3,9.68358E-2,-1.3688268E-1,3.2465898E-5,1E-1,-4.1767735E-2,-5.6899036E-3],"categories":[],"categories_nodes":[],"categories_segments":[],"categories_sizes":[],"default_left":[0,0,0,0,0,0,0],"id":63,"left_children":[1,3,5,-1,-1,-1,-1],"loss_changes":[1.3731669E1,6.646829E1,1.0172079E1,0E0,0E0,0E0,0E0],"parents":[2147483647,0,0,1,1,2,2],"right_children":[2,4,6,-1,-1,-1,-1],"split_conditions":[5E-1,4.372003E-3,2.9303194E-3,3.2465898E-5,1E-1,-4.1767735E-2,-5.6899036E-3],"split_indices":[10,10,13,0,0,0,0],"split_type":[0,0,0,0,0,0,0],"sum_hessian":[1.0114791E3,5.593969E2,4.520822E2,5.2394727E2,3.5449627E1,9.90123E1,3.5306992E2],"tree_param":{"num_deleted":"0","num_feature":"19","num_nodes":"7","size_leaf_vector":"1"}},{"base_weights":[2.0845547E-2,2.5654492E-1,-2.4414213E-2,1.7197646E-2,1E-1,-2.0312874E-2,7.5998926E-3],"categories":[],"categories_nodes":[],"categories_segments":[],"categories_sizes":[],"default_left":[0,0,0,0,0,0,0],"id":64,"left_children":[1,3,5,-1,-1,-1,-1],"loss_changes":[1.0897365E1,1.1979099E1,1.5352665E1,0E0,0E0,0E0,0E0],"parents":[2147483647,0,0,1,1,2,2],"right_children":[2,4,6,-1,-1,-1,-1],"split_conditions":[2.8169014E-2,1.5936112E-2,5.156951E-1,1.7197646E-2,1E-1,-2.0312874E-2,7.5998926E-3],"split_indices":[4,4,17,0,0,0,0],"split_type":[0,0,0,0,0,0,0],"sum_hessian":[1.0128893E3,1.6277043E2,8.5011884E2,1.499811E2,1.2789348E1,3.0581125E2,5.4430756E2],"tree_param":{"num_deleted":"0","num_feature":"19","num_nodes":"7","size_leaf_vector":"1"}},{"base_weights":[1.9719815E-2,9.825181E-2,-1.3843581E-1,2.7980978E-2,3.289858E-4,3.0464954E-3,-2.5561696E-2],"categories":[],"categories_nodes":[],"categories_segments":[],"categories_sizes":[],"default_left":[0,0,0,0,0,0,0],"id":65,"left_children":[1,3,5,-1,-1,-1,-1],"loss_changes":[1.2806528E1,1.1854811E1,6.802795E0,0E0,0E0,0E0,0E0],"parents":[2147483647,0,0,1,1,2,2],"right_children":[2,4,6,-1,-1,-1,-1],"split_conditions":[1E0,1.4084508E-1,8.575044E-1,2.7980978E-2,3.289858E-4,3.0464954E-3,-2.5561696E-2],"split_indices":[15,4,2,0,0,0,0],"split_type":[0,0,0,0,0,0,0],"sum_hessian":[1.0258329E3,6.8614124E2,3.3969162E2,2.3460323E2,4.5153802E2,1.3909361E2,2.0059799E2],"tree_param":{"num_deleted":"0","num_feature":"19","num_nodes":"7","size_leaf_vector":"1"}},{"base_weights":[-2.2314558E-2,2.6584384E-1,-6.080932E-2,1.8617418E-2,1E-1,-1.4507065E-2,1.2619773E-2],"categories":[],"categories_nodes":[],"categories_segments":[],"categories_sizes":[],"default_left":[0,0,0,0,0,0,0],"id":66,"left_children":[1,3,5,-1,-1,-1,-1],"loss_changes":[1.1410208E1,7.3665752E0,1.4307623E1,0E0,0E0,0E0,0E0],"parents":[2147483647,0,0,1,1,2,2],"right_children":[2,4,6,-1,-1,-1,-1],"split_conditions":[1.4084507E-2,3.5260306E-3,7.508417E-1,1.8617418E-2,1E-1,-1.4507065E-2,1.2619773E-2],"split_indices":[4,4,17,0,0,0,0],"split_type":[0,0,0,0,0,0,0],"sum_hessian":[1.0225372E3,1.1949976E2,9.030374E2,1.0971829E2,9.781473E0,6.230593E2,2.7997806E2],"tree_param":{"num_deleted":"0","num_feature":"19","num_nodes":"7","size_leaf_vector":"1"}},{"base_weights":[-7.742743E-3,3.346466E-2,-2.2619057E-1,-1.075955E-3,1E-1,-4.6763595E-2,6.7257993E-3],"categories":[],"categories_nodes":[],"categories_segments":[],"categories_sizes":[],"default_left":[0,0,0,0,0,0,0],"id":67,"left_children":[1,3,5,-1,-1,-1,-1],"loss_changes":[9.190877E0,5.060742E1,1.1553745E1,0E0,0E0,0E0,0E0],"parents":[2147483647,0,0,1,1,2,2],"right_children":[2,4,6,-1,-1,-1,-1],"split_conditions":[1E0,6.7719537E-1,1.0329448E-3,-1.075955E-3,1E-1,-4.6763595E-2,6.7257993E-3],"split_indices":[16,16,8,0,0,0,0],"split_type":[0,0,0,0,0,0,0],"sum_hessian":[1.0114407E3,8.512519E2,1.601888E2,8.284329E2,2.281892E1,8.77426E1,7.244619E1],"tree_param":{"num_deleted":"0","num_feature":"19","num_nodes":"7","size_leaf_vector":"1"}},{"base_weights":[-6.5057334E-3,-3.0313447E-1,4.506265E-2,-1.405093E-2,-8.783719E-2,4.1019507E-2,4.959442E-4],"categories":[],"categories_nodes":[],"categories_segments":[],"categories_sizes":[],"default_left":[0,0,0,0,0,0,0],"id":68,"left_children":[1,3,5,-1,-1,-1,-1],"loss_changes":[1.5552137E1,1.3945139E1,1.2633771E1,0E0,0E0,0E0,0E0],"parents":[2147483647,0,0,1,1,2,2],"right_children":[2,4,6,-1,-1,-1,-1],"split_conditions":[1.15595415E-1,5.0063755E-2,1E0,-1.405093E-2,-8.783719E-2,4.1019507E-2,4.959442E-4],"split_indices":[17,18,5,0,0,0,0],"split_type":[0,0,0,0,0,0,0],"sum_hessian":[1.0086535E3,1.4894742E2,8.5970605E2,1.17224915E2,3.1722511E1,8.3918785E1,7.757873E2],"tree_param":{"num_deleted":"0","num_feature":"19","num_nodes":"7","size_leaf_vector":"1"}},{"base_weights":[-4.275047E-3,2.849537E-1,-3.8518585E-2,4.22413E-2,-4.4588264E-2,-2.6975853E-2,2.756264E-3],"categories":[],"categories_nodes":[],"categories_segments":[],"categories_sizes":[],"default_left":[0,0,0,0,0,0,0],"id":69,"left_children":[1,3,5,-1,-1,-1,-1],"loss_changes":[1.0010916E1,1.0979229E1,1.3842557E1,0E0,0E0,0E0,0E0],"parents":[2147483647,0,0,1,1,2,2],"right_children":[2,4,6,-1,-1,-1,-1],"split_conditions":[1E0,1E0,9.116291E-3,4.22413E-2,-4.4588264E-2,-2.6975853E-2,2.756264E-3],"split_indices":[5,3,7,0,0,0,0],"split_type":[0,0,0,0,0,0,0],"sum_hessian":[1.00470734E3,1.0527648E2,8.9943085E2,8.9080605E1,1.6195877E1,1.9955464E2,6.998762E2],"tree_param":{"num_deleted":"0","num_feature":"19","num_nodes":"7","size_leaf_vector":"1"}},{"base_weights":[1.7166348E-3,-5.012781E-2,2.0036207E-1,-1.4076185E-2,7.404243E-3,3.2066382E-2,-3.54855E-2],"categories":[],"categories_nodes":[],"categories_segments":[],"categories_sizes":[],"default_left":[0,0,0,0,0,0,0],"id":70,"left_children":[1,3,5,-1,-1,-1,-1],"loss_changes":[1.0480704E1,9.072231E0,1.4213778E1,0E0,0E0,0E0,0E0],"parents":[2147483647,0,0,1,1,2,2],"right_children":[2,4,6,-1,-1,-1,-1],"split_conditions":[7.941937E-2,5.03921E-1,5.5863464E-1,-1.4076185E-2,7.404243E-3,3.2066382E-2,-3.54855E-2],"split_indices":[1,6,18,0,0,0,0],"split_type":[0,0,0,0,0,0,0],"sum_hessian":[1.0094112E3,8.006848E2,2.087264E2,4.6323392E2,3.3745087E2,1.7204999E2,3.66764E1],"tree_param":{"num_deleted":"0","num_feature":"19","num_nodes":"7","size_leaf_vector":"1"}},{"base_weights":[8.866558E-3,2.932423E-2,-6.1936826E-1,7.597906E-3,-1.3736966E-2,2.867413E-3,-8.783219E-2],"categories":[],"categories_nodes":[],"categories_segments":[],"categories_sizes":[],"default_left":[0,0,0,0,0,0,0],"id":71,"left_children":[1,3,5,-1,-1,-1,-1],"loss_changes":[1.2986455E1,7.609146E0,5.461072E0,0E0,0E0,0E0,0E0],"parents":[2147483647,0,0,1,1,2,2],"right_children":[2,4,6,-1,-1,-1,-1],"split_conditions":[9.859155E-1,1E0,4.9577048E-1,7.597906E-3,-1.3736966E-2,2.867413E-3,-8.783219E-2],"split_indices":[4,3,16,0,0,0,0],"split_type":[0,0,0,0,0,0,0],"sum_hessian":[1.0026655E3,9.721221E2,3.0543427E1,7.604336E2,2.116885E2,8.863997E0,2.1679428E1],"tree_param":{"num_deleted":"0","num_feature":"19","num_nodes":"7","size_leaf_vector":"1"}},{"base_weights":[1.1463399E-2,2.3558913E-1,-4.6176556E-2,1.7761922E-2,1E-1,-1.7909182E-2,4.2892327E-3],"categories":[],"categories_nodes":[],"categories_segments":[],"categories_sizes":[],"default_left":[0,0,0,0,0,0,0],"id":72,"left_children":[1,3,5,-1,-1,-1,-1],"loss_changes":[1.3172001E1,1.0940888E1,9.602554E0,0E0,0E0,0E0,0E0],"parents":[2147483647,0,0,1,1,2,2],"right_children":[2,4,6,-1,-1,-1,-1],"split_conditions":[4.225352E-2,2.972753E-2,2.4699904E-3,1.7761922E-2,1E-1,-1.7909182E-2,4.2892327E-3],"split_indices":[4,4,12,0,0,0,0],"split_type":[0,0,0,0,0,0,0],"sum_hessian":[1.0121224E3,2.0677016E2,8.053522E2,1.9618404E2,1.0586128E1,3.2318433E2,4.8216788E2],"tree_param":{"num_deleted":"0","num_feature":"19","num_nodes":"7","size_leaf_vector":"1"}},{"base_weights":[-1.5714092E-2,8.345642E-2,-1.5295863E-1,-1.966685E-3,3.2149136E-2,-3.7158754E-2,-3.8570797E-3],"categories":[],"categories_nodes":[],"categories_segments":[],"categories_sizes":[],"default_left":[0,0,0,0,0,0,0],"id":73,"left_children":[1,3,5,-1,-1,-1,-1],"loss_changes":[1.3529391E1,1.4191734E1,1.039415E1,0E0,0E0,0E0,0E0],"parents":[2147483647,0,0,1,1,2,2],"right_children":[2,4,6,-1,-1,-1,-1],"split_conditions":[3.5211268E-1,5.03921E-1,5.03921E-1,-1.966685E-3,3.2149136E-2,-3.7158754E-2,-3.8570797E-3],"split_indices":[4,6,6,0,0,0,0],"split_type":[0,0,0,0,0,0,0],"sum_hessian":[9.883411E2,5.7355994E2,4.1478116E2,4.0053464E2,1.7302533E2,1.4140044E2,2.733807E2],"tree_param":{"num_deleted":"0","num_feature":"19","num_nodes":"7","size_leaf_vector":"1"}},{"base_weights":[-2.1128763E-2,-2.0699008E-1,6.625027E-2,-1.7138667E-2,-9.172487E-2,1E-1,-2.0957539E-4],"categories":[],"categories_nodes":[],"categories_segments":[],"categories_sizes":[],"default_left":[0,0,0,0,0,0,0],"id":74,"left_children":[1,3,5,-1,-1,-1,-1],"loss_changes":[1.6268702E1,7.987488E0,5.6147484E1,0E0,0E0,0E0,0E0],"parents":[2147483647,0,0,1,1,2,2],"right_children":[2,4,6,-1,-1,-1,-1],"split_conditions":[1.10617755E-2,1E0,5E-1,-1.7138667E-2,-9.172487E-2,1E-1,-2.0957539E-4],"split_indices":[9,4,9,0,0,0,0],"split_type":[0,0,0,0,0,0,0],"sum_hessian":[9.9592816E2,3.1841428E2,6.7751385E2,3.0453104E2,1.3883243E1,3.2874115E1,6.446398E2],"tree_param":{"num_deleted":"0","num_feature":"19","num_nodes":"7","size_leaf_vector":"1"}},{"base_weights":[8.975159E-3,2.357337E-2,-8.112914E-1,-2.1678079E-2,6.1525432E-3,-6.0856618E-2,-1E-1],"categories":[],"categories_nodes":[],"categories_segments":[],"categories_sizes":[],"default_left":[0,0,0,0,0,0,0],"id":75,"left_children":[1,3,5,-1,-1,-1,-1],"loss_changes":[1.2039246E1,8.990678E0,5.548477E-2,0E0,0E0,0E0,0E0],"parents":[2147483647,0,0,1,1,2,2],"right_children":[2,4,6,-1,-1,-1,-1],"split_conditions":[1E0,7.1250625E-2,6.7719537E-1,-2.1678079E-2,6.1525432E-3,-6.0856618E-2,-1E-1],"split_indices":[4,17,16,0,0,0,0],"split_type":[0,0,0,0,0,0,0],"sum_hessian":[9.956004E2,9.792657E2,1.633473E1,1.3253862E2,8.4672705E2,1.01821575E1,6.152573E0],"tree_param":{"num_deleted":"0","num_feature":"19","num_nodes":"7","size_leaf_vector":"1"}},{"base_weights":[2.4338478E-2,6.213535E-2,-1.7353898E-1,1.3965921E-3,1E-1,-4.508644E-2,1.7275404E-2],"categories":[],"categories_nodes":[],"categories_segments":[],"categories_sizes":[],"default_left":[0,0,0,0,0,0,0],"id":76,"left_children":[1,3,5,-1,-1,-1,-1],"loss_changes":[7.4370584E0,5.159681E1,1.5409297E1,0E0,0E0,0E0,0E0],"parents":[2147483647,0,0,1,1,2,2],"right_children":[2,4,6,-1,-1,-1,-1],"split_conditions":[1E0,6.7719537E-1,1.0329448E-3,1.3965921E-3,1E-1,-4.508644E-2,1.7275404E-2],"split_indices":[16,16,8,0,0,0,0],"split_type":[0,0,0,0,0,0,0],"sum_hessian":[9.877687E2,8.303531E2,1.5741563E2,8.0521826E2,2.5134779E1,8.740499E1,7.001064E1],"tree_param":{"num_deleted":"0","num_feature":"19","num_nodes":"7","size_leaf_vector":"1"}},{"base_weights":[-2.6785841E-5,2.6820183E-1,-3.5345927E-2,5.980676E-3,5.723104E-2,-3.620571E-2,-3.0522362E-5],"categories":[],"categories_nodes":[],"categories_segments":[],"categories_sizes":[],"default_left":[0,0,0,0,0,0,0],"id":77,"left_children":[1,3,5,-1,-1,-1,-1],"loss_changes":[9.423605E0,7.26036E0,1.0055614E1,0E0,0E0,0E0,0E0],"parents":[2147483647,0,0,1,1,2,2],"right_children":[2,4,6,-1,-1,-1,-1],"split_conditions":[1.4084507E-2,3.733001E-3,7.1250625E-2,5.980676E-3,5.723104E-2,-3.620571E-2,-3.0522362E-5],"split_indices":[4,18,17,0,0,0,0],"split_type":[0,0,0,0,0,0,0],"sum_hessian":[9.887719E2,1.1395141E2,8.748205E2,6.852149E1,4.5429913E1,8.3558136E1,7.912624E2],"tree_param":{"num_deleted":"0","num_feature":"19","num_nodes":"7","size_leaf_vector":"1"}},{"base_weights":[-7.6991704E-4,1.0448715E-1,-9.897789E-2,5.503818E-3,5.210167E-2,-2.947182E-5,-2.6249675E-2],"categories":[],"categories_nodes":[],"categories_segments":[],"categories_sizes":[],"default_left":[0,0,0,0,0,0,0],"id":78,"left_children":[1,3,5,-1,-1,-1,-1],"loss_changes":[1.0193906E1,9.763507E0,8.214159E0,0E0,0E0,0E0,0E0],"parents":[2147483647,0,0,1,1,2,2],"right_children":[2,4,6,-1,-1,-1,-1],"split_conditions":[2.3943663E-1,7.2496265E-1,5E-1,5.503818E-3,5.210167E-2,-2.947182E-5,-2.6249675E-2],"split_indices":[4,17,11,0,0,0,0],"split_type":[0,0,0,0,0,0,0],"sum_hessian":[9.8028015E2,4.7263672E2,5.0764343E2,4.237078E2,4.8928932E1,3.175913E2,1.9005214E2],"tree_param":{"num_deleted":"0","num_feature":"19","num_nodes":"7","size_leaf_vector":"1"}},{"base_weights":[1.932021E-3,4.6841502E-2,-2.5149834E-1,3.622562E-4,1E-1,4.008805E-3,-5.4172672E-2],"categories":[],"categories_nodes":[],"categories_segments":[],"categories_sizes":[],"default_left":[0,0,0,0,0,0,0],"id":79,"left_children":[1,3,5,-1,-1,-1,-1],"loss_changes":[1.1256604E1,4.7420227E1,1.2665481E1,0E0,0E0,0E0,0E0],"parents":[2147483647,0,0,1,1,2,2],"right_children":[2,4,6,-1,-1,-1,-1],"split_conditions":[1E0,6.7719537E-1,4.3971655E-1,3.622562E-4,1E-1,4.008805E-3,-5.4172672E-2],"split_indices":[16,16,10,0,0,0,0],"split_type":[0,0,0,0,0,0,0],"sum_hessian":[9.8358734E2,8.365543E2,1.4703302E2,8.142522E2,2.2302126E1,7.3602974E1,7.343005E1],"tree_param":{"num_deleted":"0","num_feature":"19","num_nodes":"7","size_leaf_vector":"1"}},{"base_weights":[-1.1138317E-2,3.7665963E-2,-2.8175274E-1,-2.7812499E-5,1E-1,-1.9062568E-3,-5.48688E-2],"categories":[],"categories_nodes":[],"categories_segments":[],"categories_sizes":[],"default_left":[0,0,0,0,0,0,0],"id":80,"left_children":[1,3,5,-1,-1,-1,-1],"loss_changes":[1.291151E1,4.0841198E1,1.0415832E1,0E0,0E0,0E0,0E0],"parents":[2147483647,0,0,1,1,2,2],"right_children":[2,4,6,-1,-1,-1,-1],"split_conditions":[1E0,6.7719537E-1,4.759059E-1,-2.7812499E-5,1E-1,-1.9062568E-3,-5.48688E-2],"split_indices":[16,16,10,0,0,0,0],"split_type":[0,0,0,0,0,0,0],"sum_hessian":[9.692956E2,8.2161224E2,1.4768335E2,8.018124E2,1.9799854E1,7.5162346E1,7.2521E1],"tree_param":{"num_deleted":"0","num_feature":"19","num_nodes":"7","size_leaf_vector":"1"}},{"base_weights":[3.159199E-2,4.3993257E-2,-7.363532E-1,3.2231405E-3,7.0601076E-2,-8.6380266E-2,-4.1144554E-2],"categories":[],"categories_nodes":[],"categories_segments":[],"categories_sizes":[],"default_left":[0,0,0,0,0,0,0],"id":81,"left_children":[1,3,5,-1,-1,-1,-1],"loss_changes":[9.386837E0,7.512616E0,2.6270485E-1,0E0,0E0,0E0,0E0],"parents":[2147483647,0,0,1,1,2,2],"right_children":[2,4,6,-1,-1,-1,-1],"split_conditions":[1E0,8.5724586E-1,9.069346E-1,3.2231405E-3,7.0601076E-2,-8.6380266E-2,-4.1144554E-2],"split_indices":[4,18,18,0,0,0,0],"split_type":[0,0,0,0,0,0,0],"sum_hessian":[9.7279456E2,9.5839075E2,1.4403775E1,9.4283936E2,1.5551388E1,8.933212E0,5.470563E0],"tree_param":{"num_deleted":"0","num_feature":"19","num_nodes":"7","size_leaf_vector":"1"}},{"base_weights":[-1.4362993E-2,-1.311169E-1,7.845013E-2,-5.528595E-3,-8.041388E-2,1E-1,1.3048382E-3],"categories":[],"categories_nodes":[],"categories_segments":[],"categories_sizes":[],"default_left":[0,0,0,0,0,0,0],"id":82,"left_children":[1,3,5,-1,-1,-1,-1],"loss_changes":[1.0706079E1,2.2276028E1,4.4090862E1,0E0,0E0,0E0,0E0],"parents":[2147483647,0,0,1,1,2,2],"right_children":[2,4,6,-1,-1,-1,-1],"split_conditions":[2.4699904E-3,6.760563E-1,5E-1,-5.528595E-3,-8.041388E-2,1E-1,1.3048382E-3],"split_indices":[12,4,12,0,0,0,0],"split_type":[0,0,0,0,0,0,0],"sum_hessian":[9.8194525E2,4.3517865E2,5.467666E2,3.9221735E2,4.296132E1,2.388723E1,5.2287933E2],"tree_param":{"num_deleted":"0","num_feature":"19","num_nodes":"7","size_leaf_vector":"1"}},{"base_weights":[-1.7993315E-3,-6.338906E-2,1.617153E-1,-2.5954074E-3,-3.7203245E-2,2.0837724E-2,-8.1838034E-2],"categories":[],"categories_nodes":[],"categories_segments":[],"categories_sizes":[],"default_left":[0,0,0,0,0,0,0],"id":83,"left_children":[1,3,5,-1,-1,-1,-1],"loss_changes":[9.953773E0,8.288591E0,1.2586494E1,0E0,0E0,0E0,0E0],"parents":[2147483647,0,0,1,1,2,2],"right_children":[2,4,6,-1,-1,-1,-1],"split_conditions":[7.508417E-1,3.5801613E-1,1E0,-2.5954074E-3,-3.7203245E-2,2.0837724E-2,-8.1838034E-2],"split_indices":[17,18,4,0,0,0,0],"split_type":[0,0,0,0,0,0,0],"sum_hessian":[9.8290106E2,7.148632E2,2.6803784E2,6.3879285E2,7.607035E1,2.5670563E2,1.1332227E1],"tree_param":{"num_deleted":"0","num_feature":"19","num_nodes":"7","size_leaf_vector":"1"}},{"base_weights":[1.4463545E-2,-1.3517883E-1,8.437708E-2,-4.7851156E-2,-8.350881E-3,1E-1,2.3112488E-3],"categories":[],"categories_nodes":[],"categories_segments":[],"categories_sizes":[],"default_left":[0,0,0,0,0,0,0],"id":84,"left_children":[1,3,5,-1,-1,-1,-1],"loss_changes":[1.0177183E1,5.457557E0,4.6139145E1,0E0,0E0,0E0,0E0],"parents":[2147483647,0,0,1,1,2,2],"right_children":[2,4,6,-1,-1,-1,-1],"split_conditions":[1.10617755E-2,3.6522174E-1,5E-1,-4.7851156E-2,-8.350881E-3,1E-1,2.3112488E-3],"split_indices":[9,17,9,0,0,0,0],"split_type":[0,0,0,0,0,0,0],"sum_hessian":[9.672481E2,3.072496E2,6.599985E2,3.8857338E1,2.6839227E2,3.0899143E1,6.2909937E2],"tree_param":{"num_deleted":"0","num_feature":"19","num_nodes":"7","size_leaf_vector":"1"}},{"base_weights":[3.1883232E-2,-7.448662E-2,1.106553E-1,-2.8276735E-3,-7.132802E-2,1E-1,5.417257E-3],"categories":[],"categories_nodes":[],"categories_segments":[],"categories_sizes":[],"default_left":[0,0,0,0,0,0,0],"id":85,"left_children":[1,3,5,-1,-1,-1,-1],"loss_changes":[8.245884E0,1.2336805E1,3.626425E1,0E0,0E0,0E0,0E0],"parents":[2147483647,0,0,1,1,2,2],"right_children":[2,4,6,-1,-1,-1,-1],"split_conditions":[2.9303194E-3,7.3239434E-1,5E-1,-2.8276735E-3,-7.132802E-2,1E-1,5.417257E-3],"split_indices":[13,4,13,0,0,0,0],"split_type":[0,0,0,0,0,0,0],"sum_hessian":[9.780426E2,4.156094E2,5.6243317E2,3.8869244E2,2.6916937E1,2.3616888E1,5.388163E2],"tree_param":{"num_deleted":"0","num_feature":"19","num_nodes":"7","size_leaf_vector":"1"}},{"base_weights":[1.3882164E-2,-2.81606E-2,1.9679673E-1,2.4382954E-3,-3.6540076E-2,2.4158303E-2,-5.477584E-2],"categories":[],"categories_nodes":[],"categories_segments":[],"categories_sizes":[],"default_left":[0,0,0,0,0,0,0],"id":86,"left_children":[1,3,5,-1,-1,-1,-1],"loss_changes":[7.542574E0,1.4133346E1,6.299271E0,0E0,0E0,0E0,0E0],"parents":[2147483647,0,0,1,1,2,2],"right_children":[2,4,6,-1,-1,-1,-1],"split_conditions":[8.061784E-1,3.733578E-1,1E0,2.4382954E-3,-3.6540076E-2,2.4158303E-2,-5.477584E-2],"split_indices":[17,18,4,0,0,0,0],"split_type":[0,0,0,0,0,0,0],"sum_hessian":[9.713961E2,7.900932E2,1.8130293E2,6.841333E2,1.0595991E2,1.717799E2,9.523018E0],"tree_param":{"num_deleted":"0","num_feature":"19","num_nodes":"7","size_leaf_vector":"1"}},{"base_weights":[4.4344584E-3,2.8663605E-1,-2.9243357E-2,4.4045325E-2,-3.762786E-2,8.425267E-3,-1.355477E-2],"categories":[],"categories_nodes":[],"categories_segments":[],"categories_sizes":[],"default_left":[0,0,0,0,0,0,0],"id":87,"left_children":[1,3,5,-1,-1,-1,-1],"loss_changes":[9.348685E0,1.0903413E1,1.0555159E1,0E0,0E0,0E0,0E0],"parents":[2147483647,0,0,1,1,2,2],"right_children":[2,4,6,-1,-1,-1,-1],"split_conditions":[1E0,4.9394575E-1,2.3943663E-1,4.4045325E-2,-3.762786E-2,8.425267E-3,-1.355477E-2],"split_indices":[5,11,4,0,0,0,0],"split_type":[0,0,0,0,0,0,0],"sum_hessian":[9.725206E2,1.0320209E2,8.6931854E2,8.416059E1,1.9041494E1,4.2008295E2,4.492356E2],"tree_param":{"num_deleted":"0","num_feature":"19","num_nodes":"7","size_leaf_vector":"1"}},{"base_weights":[2.0635685E-2,-7.2909154E-2,9.3721636E-2,3.0580538E-3,-4.315484E-2,1E-1,3.6011513E-3],"categories":[],"categories_nodes":[],"categories_segments":[],"categories_sizes":[],"default_left":[0,0,0,0,0,0,0],"id":88,"left_children":[1,3,5,-1,-1,-1,-1],"loss_changes":[6.703374E0,1.6000467E1,3.664421E1,0E0,0E0,0E0,0E0],"parents":[2147483647,0,0,1,1,2,2],"right_children":[2,4,6,-1,-1,-1,-1],"split_conditions":[2.9303194E-3,4.974539E-1,5E-1,3.0580538E-3,-4.315484E-2,1E-1,3.6011513E-3],"split_indices":[13,10,13,0,0,0,0],"split_type":[0,0,0,0,0,0,0],"sum_hessian":[9.7390753E2,4.2656662E2,5.473409E2,3.3153427E2,9.5032326E1,2.3167019E1,5.241739E2],"tree_param":{"num_deleted":"0","num_feature":"19","num_nodes":"7","size_leaf_vector":"1"}},{"base_weights":[1.8673737E-2,-5.5817995E-2,1.10869855E-1,-1.3479092E-3,-6.400612E-2,1E-1,4.7343827E-4],"categories":[],"categories_nodes":[],"categories_segments":[],"categories_sizes":[],"default_left":[0,0,0,0,0,0,0],"id":89,"left_children":[1,3,5,-1,-1,-1,-1],"loss_changes":[6.722089E0,1.335629E1,5.5628544E1,0E0,0E0,0E0,0E0],"parents":[2147483647,0,0,1,1,2,2],"right_children":[2,4,6,-1,-1,-1,-1],"split_conditions":[5.03921E-1,4.1639405E-1,1E0,-1.3479092E-3,-6.400612E-2,1E-1,4.7343827E-4],"split_indices":[6,18,6,0,0,0,0],"split_type":[0,0,0,0,0,0,0],"sum_hessian":[9.717634E2,5.371069E2,4.3465652E2,5.019275E2,3.517942E1,3.0772757E1,4.038838E2],"tree_param":{"num_deleted":"0","num_feature":"19","num_nodes":"7","size_leaf_vector":"1"}},{"base_weights":[2.3077061E-2,-8.297197E-2,9.603699E-2,-1.1395802E-3,-6.380277E-2,-5.115527E-3,2.0097768E-2],"categories":[],"categories_nodes":[],"categories_segments":[],"categories_sizes":[],"default_left":[0,0,0,0,0,0,0],"id":90,"left_children":[1,3,5,-1,-1,-1,-1],"loss_changes":[7.6238685E0,1.59106E1,9.041067E0,0E0,0E0,0E0,0E0],"parents":[2147483647,0,0,1,1,2,2],"right_children":[2,4,6,-1,-1,-1,-1],"split_conditions":[5.127055E-1,9.7776186E-1,1.10617755E-2,-1.1395802E-3,-6.380277E-2,-5.115527E-3,2.0097768E-2],"split_indices":[17,6,9,0,0,0,0],"split_type":[0,0,0,0,0,0,0],"sum_hessian":[9.7910645E2,3.984467E2,5.806598E2,3.539982E2,4.444848E1,2.4149411E2,3.3916565E2],"tree_param":{"num_deleted":"0","num_feature":"19","num_nodes":"7","size_leaf_vector":"1"}},{"base_weights":[1.2034178E-3,-7.153257E-2,1.17184475E-1,-2.5939614E-2,2.004603E-3,1E-1,-1.7711491E-3],"categories":[],"categories_nodes":[],"categories_segments":[],"categories_sizes":[],"default_left":[0,0,0,0,0,0,0],"id":91,"left_children":[1,3,5,-1,-1,-1,-1],"loss_changes":[8.189176E0,1.0273042E1,6.0485043E1,0E0,0E0,0E0,0E0],"parents":[2147483647,0,0,1,1,2,2],"right_children":[2,4,6,-1,-1,-1,-1],"split_conditions":[1.0329448E-3,9.116291E-3,5E-1,-2.5939614E-2,2.004603E-3,1E-1,-1.7711491E-3],"split_indices":[8,7,8,0,0,0,0],"split_type":[0,0,0,0,0,0,0],"sum_hessian":[9.637614E2,5.9201074E2,3.7175067E2,1.9377066E2,3.9824008E2,3.3269493E1,3.3848117E2],"tree_param":{"num_deleted":"0","num_feature":"19","num_nodes":"7","size_leaf_vector":"1"}},{"base_weights":[-5.4060635E-3,-5.9844285E-2,1.5953061E-1,-2.4840205E-3,-7.1906306E-2,1E-1,5.8984826E-3],"categories":[],"categories_nodes":[],"categories_segments":[],"categories_sizes":[],"default_left":[0,0,0,0,0,0,0],"id":92,"left_children":[1,3,5,-1,-1,-1,-1],"loss_changes":[8.651513E0,1.6706646E1,2.6087727E1,0E0,0E0,0E0,0E0],"parents":[2147483647,0,0,1,1,2,2],"right_children":[2,4,6,-1,-1,-1,-1],"split_conditions":[3.7582489E-3,5.5863464E-1,5E-1,-2.4840205E-3,-7.1906306E-2,1E-1,5.8984826E-3],"split_indices":[14,18,14,0,0,0,0],"split_type":[0,0,0,0,0,0,0],"sum_hessian":[9.578234E2,7.2107294E2,2.3675049E2,6.858444E2,3.522851E1,1.7479443E1,2.1927106E2],"tree_param":{"num_deleted":"0","num_feature":"19","num_nodes":"7","size_leaf_vector":"1"}},{"base_weights":[2.5963344E-2,-7.618324E-2,1.0374541E-1,-3.612116E-3,-5.2355777E-2,1E-1,4.3597817E-3],"categories":[],"categories_nodes":[],"categories_segments":[],"categories_sizes":[],"default_left":[0,0,0,0,0,0,0],"id":93,"left_children":[1,3,5,-1,-1,-1,-1],"loss_changes":[7.687593E0,7.4784822E0,3.8636116E1,0E0,0E0,0E0,0E0],"parents":[2147483647,0,0,1,1,2,2],"right_children":[2,4,6,-1,-1,-1,-1],"split_conditions":[2.4699904E-3,4.6395952E-1,5E-1,-3.612116E-3,-5.2355777E-2,1E-1,4.3597817E-3],"split_indices":[12,18,12,0,0,0,0],"split_type":[0,0,0,0,0,0,0],"sum_hessian":[9.613629E2,4.1504446E2,5.463184E2,3.8212933E2,3.2915146E1,2.333113E1,5.229873E2],"tree_param":{"num_deleted":"0","num_feature":"19","num_nodes":"7","size_leaf_vector":"1"}},{"base_weights":[1.5916014E-2,-8.359941E-2,9.195737E-2,1.1579309E-2,-2.3337532E-2,1E-1,3.8157364E-3],"categories":[],"categories_nodes":[],"categories_segments":[],"categories_sizes":[],"default_left":[0,0,0,0,0,0,0],"id":94,"left_children":[1,3,5,-1,-1,-1,-1],"loss_changes":[7.3810296E0,1.2638483E1,3.3206257E1,0E0,0E0,0E0,0E0],"parents":[2147483647,0,0,1,1,2,2],"right_children":[2,4,6,-1,-1,-1,-1],"split_conditions":[2.9303194E-3,5.2637044E-2,4.974539E-1,1.1579309E-2,-2.3337532E-2,1E-1,3.8157364E-3],"split_indices":[13,18,13,0,0,0,0],"split_type":[0,0,0,0,0,0,0],"sum_hessian":[9.690408E2,4.1912146E2,5.499193E2,1.7959322E2,2.3952824E2,2.2921234E1,5.269981E2],"tree_param":{"num_deleted":"0","num_feature":"19","num_nodes":"7","size_leaf_vector":"1"}},{"base_weights":[5.46522E-3,-4.85786E-2,2.104571E-1,-1.1214331E-2,1.311228E-2,7.532865E-3,5.3513605E-2],"categories":[],"categories_nodes":[],"categories_segments":[],"categories_sizes":[],"default_left":[0,0,0,0,0,0,0],"id":95,"left_children":[1,3,5,-1,-1,-1,-1],"loss_changes":[1.0651973E1,8.685127E0,8.741141E0,0E0,0E0,0E0,0E0],"parents":[2147483647,0,0,1,1,2,2],"right_children":[2,4,6,-1,-1,-1,-1],"split_conditions":[7.941937E-2,3.7582489E-3,1.0329448E-3,-1.1214331E-2,1.311228E-2,7.532865E-3,5.3513605E-2],"split_indices":[1,14,8,0,0,0,0],"split_type":[0,0,0,0,0,0,0],"sum_hessian":[9.5353394E2,7.548115E2,1.9872244E2,5.582703E2,1.965412E2,1.4140921E2,5.731323E1],"tree_param":{"num_deleted":"0","num_feature":"19","num_nodes":"7","size_leaf_vector":"1"}},{"base_weights":[-1.6735416E-3,-1.2373229E-1,5.8409985E-2,-2.2468342E-2,2.3227222E-2,1E-1,-7.8904E-5],"categories":[],"categories_nodes":[],"categories_segments":[],"categories_sizes":[],"default_left":[0,0,0,0,0,0,0],"id":96,"left_children":[1,3,5,-1,-1,-1,-1],"loss_changes":[7.096497E0,1.1540528E1,4.3916706E1,0E0,0E0,0E0,0E0],"parents":[2147483647,0,0,1,1,2,2],"right_children":[2,4,6,-1,-1,-1,-1],"split_conditions":[1.10617755E-2,6.7719537E-1,4.9331507E-1,-2.2468342E-2,2.3227222E-2,1E-1,-7.8904E-5],"split_indices":[9,16,9,0,0,0,0],"split_type":[0,0,0,0,0,0,0],"sum_hessian":[9.598554E2,3.168284E2,6.43027E2,2.4734056E2,6.948784E1,2.9479927E1,6.1354706E2],"tree_param":{"num_deleted":"0","num_feature":"19","num_nodes":"7","size_leaf_vector":"1"}},{"base_weights":[2.5251837E-4,9.550385E-3,-6.402939E-1,-3.3582456E-3,1.4897974E-2,-3.6438223E-2,-7.7576384E-2],"categories":[],"categories_nodes":[],"categories_segments":[],"categories_sizes":[],"default_left":[0,0,0,0,0,0,0],"id":97,"left_children":[1,3,5,-1,-1,-1,-1],"loss_changes":[5.8142343E0,5.7724943E0,2.136178E-1,0E0,0E0,0E0,0E0],"parents":[2147483647,0,0,1,1,2,2],"right_children":[2,4,6,-1,-1,-1,-1],"split_conditions":[1E0,3.7582489E-3,8.654708E-1,-3.3582456E-3,1.4897974E-2,-3.6438223E-2,-7.7576384E-2],"split_indices":[4,14,17,0,0,0,0],"split_type":[0,0,0,0,0,0,0],"sum_hessian":[9.629944E2,9.503409E2,1.2653488E1,7.2584174E2,2.2449915E2,5.624994E0,7.0284944E0],"tree_param":{"num_deleted":"0","num_feature":"19","num_nodes":"7","size_leaf_vector":"1"}},{"base_weights":[6.513984E-3,2.2796418E-1,-2.1936174E-2,-3.9109986E-2,3.469789E-2,-8.281669E-3,1.4033814E-2],"categories":[],"categories_nodes":[],"categories_segments":[],"categories_sizes":[],"default_left":[0,0,0,0,0,0,0],"id":98,"left_children":[1,3,5,-1,-1,-1,-1],"loss_changes":[6.0491233E0,8.22389E0,8.353559E0,0E0,0E0,0E0,0E0],"parents":[2147483647,0,0,1,1,2,2],"right_children":[2,4,6,-1,-1,-1,-1],"split_conditions":[1.4084507E-2,1.442427E-4,3.7582489E-3,-3.9109986E-2,3.469789E-2,-8.281669E-3,1.4033814E-2],"split_indices":[4,18,14,0,0,0,0],"split_type":[0,0,0,0,0,0,0],"sum_hessian":[9.4734357E2,1.0745307E2,8.398905E2,1.682261E1,9.0630455E1,6.11558E2,2.2833253E2],"tree_param":{"num_deleted":"0","num_feature":"19","num_nodes":"7","size_leaf_vector":"1"}},{"base_weights":[-8.04361E-3,-8.6910404E-2,8.947653E-2,1.1891632E-2,-1.548627E-2,1E-1,-6.752999E-4],"categories":[],"categories_nodes":[],"categories_segments":[],"categories_sizes":[],"default_left":[0,0,0,0,0,0,0],"id":99,"left_children":[1,3,5,-1,-1,-1,-1],"loss_changes":[7.3786063E0,7.451559E0,4.9903534E1,0E0,0E0,0E0,0E0],"parents":[2147483647,0,0,1,1,2,2],"right_children":[2,4,6,-1,-1,-1,-1],"split_conditions":[5.03921E-1,2.8169014E-2,1E0,1.1891632E-2,-1.548627E-2,1E-1,-6.752999E-4],"split_indices":[6,4,6,0,0,0,0],"split_type":[0,0,0,0,0,0,0],"sum_hessian":[9.5301404E2,5.275259E2,4.2548816E2,1.3038118E2,3.971447E2,2.7789803E1,3.9769836E2],"tree_param":{"num_deleted":"0","num_feature":"19","num_nodes":"7","size_leaf_vector":"1"}},{"base_weights":[9.338762E-3,2.439572E-1,-1.871788E-2,3.7725847E-2,-4.3397E-2,-1.9077593E-2,2.8803726E-3],"categories":[],"categories_nodes":[],"categories_segments":[],"categories_sizes":[],"default_left":[0,0,0,0,0,0,0],"id":100,"left_children":[1,3,5,-1,-1,-1,-1],"loss_changes":[6.401337E0,9.584895E0,7.082101E0,0E0,0E0,0E0,0E0],"parents":[2147483647,0,0,1,1,2,2],"right_children":[2,4,6,-1,-1,-1,-1],"split_conditions":[1E0,9.15208E-1,9.116291E-3,3.7725847E-2,-4.3397E-2,-1.9077593E-2,2.8803726E-3],"split_indices":[5,3,7,0,0,0,0],"split_type":[0,0,0,0,0,0,0],"sum_hessian":[9.596498E2,1.0206011E2,8.5758966E2,8.578347E1,1.6276642E1,1.8540326E2,6.721864E2],"tree_param":{"num_deleted":"0","num_feature":"19","num_nodes":"7","size_leaf_vector":"1"}},{"base_weights":[-2.6087316E-2,-2.32348E-1,1.2029542E-2,-3.119564E-2,6.712448E-2,-6.573221E-3,1.9628517E-2],"categories":[],"categories_nodes":[],"categories_segments":[],"categories_sizes":[],"default_left":[0,0,0,0,0,0,0],"id":101,"left_children":[1,3,5,-1,-1,-1,-1],"loss_changes":[7.512609E0,1.0980116E1,1.153415E1,0E0,0E0,0E0,0E0],"parents":[2147483647,0,0,1,1,2,2],"right_children":[2,4,6,-1,-1,-1,-1],"split_conditions":[1.2107623E-1,7.941937E-2,1.0329448E-3,-3.119564E-2,6.712448E-2,-6.573221E-3,1.9628517E-2],"split_indices":[17,1,8,0,0,0,0],"split_type":[0,0,0,0,0,0,0],"sum_hessian":[9.4584766E2,1.4714326E2,7.9870435E2,1.3593274E2,1.1210528E1,5.6173486E2,2.369695E2],"tree_param":{"num_deleted":"0","num_feature":"19","num_nodes":"7","size_leaf_vector":"1"}},{"base_weights":[1.70924E-2,-4.5743354E-2,1.1960733E-1,-1.7608041E-2,1.0727561E-2,1E-1,2.8702046E-3],"categories":[],"categories_nodes":[],"categories_segments":[],"categories_sizes":[],"default_left":[0,0,0,0,0,0,0],"id":102,"left_children":[1,3,5,-1,-1,-1,-1],"loss_changes":[6.208816E0,1.1912215E1,3.7081226E1,0E0,0E0,0E0,0E0],"parents":[2147483647,0,0,1,1,2,2],"right_children":[2,4,6,-1,-1,-1,-1],"split_conditions":[2.9313713E-4,2.9303194E-3,5E-1,-1.7608041E-2,1.0727561E-2,1E-1,2.8702046E-3],"split_indices":[11,13,11,0,0,0,0],"split_type":[0,0,0,0,0,0,0],"sum_hessian":[9.562629E2,5.926071E2,3.6365576E2,3.202934E2,2.7231372E2,2.467887E1,3.389769E2],"tree_param":{"num_deleted":"0","num_feature":"19","num_nodes":"7","size_leaf_vector":"1"}},{"base_weights":[1.903419E-2,2.6700157E-1,-1.25556085E-2,7.0711854E-3,6.0603328E-2,-7.8398235E-2,5.6044874E-4],"categories":[],"categories_nodes":[],"categories_segments":[],"categories_sizes":[],"default_left":[0,0,0,0,0,0,0],"id":103,"left_children":[1,3,5,-1,-1,-1,-1],"loss_changes":[7.547003E0,7.1656957E0,1.2089758E1,0E0,0E0,0E0,0E0],"parents":[2147483647,0,0,1,1,2,2],"right_children":[2,4,6,-1,-1,-1,-1],"split_conditions":[1.4084507E-2,4.1426504E-3,6.391877E-3,7.0711854E-3,6.0603328E-2,-7.8398235E-2,5.6044874E-4],"split_indices":[4,18,18,0,0,0,0],"split_type":[0,0,0,0,0,0,0],"sum_hessian":[9.5213074E2,1.0710585E2,8.450249E2,6.878488E1,3.8320965E1,1.8591888E1,8.2643304E2],"tree_param":{"num_deleted":"0","num_feature":"19","num_nodes":"7","size_leaf_vector":"1"}},{"base_weights":[-2.3122672E-2,2.4143245E-2,-1.9372177E-1,1.2441734E-3,1E-1,1E-1,-2.3631873E-2],"categories":[],"categories_nodes":[],"categories_segments":[],"categories_sizes":[],"default_left":[0,0,0,0,0,0,0],"id":104,"left_children":[1,3,5,-1,-1,-1,-1],"loss_changes":[7.7513733E0,1.0814312E1,1.0944254E1,0E0,0E0,0E0,0E0],"parents":[2147483647,0,0,1,1,2,2],"right_children":[2,4,6,-1,-1,-1,-1],"split_conditions":[1E0,3.666084E-3,1.3452915E-2,1.2441734E-3,1E-1,1E-1,-2.3631873E-2],"split_indices":[3,3,17,0,0,0,0],"split_type":[0,0,0,0,0,0,0],"sum_hessian":[9.5277527E2,7.4628345E2,2.064918E2,7.4079565E2,5.4878364E0,6.242933E0,2.0024887E2],"tree_param":{"num_deleted":"0","num_feature":"19","num_nodes":"7","size_leaf_vector":"1"}},{"base_weights":[9.444992E-3,7.885262E-2,-7.501711E-2,-2.5447967E-4,1E-1,-2.2167643E-3,-3.270675E-2],"categories":[],"categories_nodes":[],"categories_segments":[],"categories_sizes":[],"default_left":[0,0,0,0,0,0,0],"id":105,"left_children":[1,3,5,-1,-1,-1,-1],"loss_changes":[5.647002E0,4.9858013E1,5.7628083E0,0E0,0E0,0E0,0E0],"parents":[2147483647,0,0,1,1,2,2],"right_children":[2,4,6,-1,-1,-1,-1],"split_conditions":[5E-1,4.372003E-3,1E0,-2.5447967E-4,1E-1,-2.2167643E-3,-3.270675E-2],"split_indices":[10,10,16,0,0,0,0],"split_type":[0,0,0,0,0,0,0],"sum_hessian":[9.5627014E2,5.2560175E2,4.3066843E2,4.9378E2,3.1821735E1,3.5724637E2,7.342208E1],"tree_param":{"num_deleted":"0","num_feature":"19","num_nodes":"7","size_leaf_vector":"1"}},{"base_weights":[-1.7338889E-2,-1.471472E-1,4.37685E-2,-5.296312E-2,-8.830081E-3,1E-1,-1.8808956E-4],"categories":[],"categories_nodes":[],"categories_segments":[],"categories_sizes":[],"default_left":[0,0,0,0,0,0,0],"id":106,"left_children":[1,3,5,-1,-1,-1,-1],"loss_changes":[7.5045757E0,6.7715497E0,3.294049E1,0E0,0E0,0E0,0E0],"parents":[2147483647,0,0,1,1,2,2],"right_children":[2,4,6,-1,-1,-1,-1],"split_conditions":[1.10617755E-2,6.1954357E-2,5E-1,-5.296312E-2,-8.830081E-3,1E-1,-1.8808956E-4],"split_indices":[9,18,9,0,0,0,0],"split_type":[0,0,0,0,0,0,0],"sum_hessian":[9.3859283E2,3.0049344E2,6.3809937E2,3.8774055E1,2.617194E2,2.3489637E1,6.1460974E2],"tree_param":{"num_deleted":"0","num_feature":"19","num_nodes":"7","size_leaf_vector":"1"}},{"base_weights":[1.8658165E-2,-5.843192E-2,1.4043748E-1,1.2069227E-2,-1.2542683E-2,1E-1,2.8126978E-3],"categories":[],"categories_nodes":[],"categories_segments":[],"categories_sizes":[],"default_left":[0,0,0,0,0,0,0],"id":107,"left_children":[1,3,5,-1,-1,-1,-1],"loss_changes":[8.935964E0,7.009265E0,4.7232994E1,0E0,0E0,0E0,0E0],"parents":[2147483647,0,0,1,1,2,2],"right_children":[2,4,6,-1,-1,-1,-1],"split_conditions":[1.0329448E-3,3.929748E-2,4.9917376E-1,1.2069227E-2,-1.2542683E-2,1E-1,2.8126978E-3],"split_indices":[8,18,8,0,0,0,0],"split_type":[0,0,0,0,0,0,0],"sum_hessian":[9.45265E2,5.786565E2,3.666085E2,1.5688887E2,4.2176764E2,2.8964172E1,3.3764432E2],"tree_param":{"num_deleted":"0","num_feature":"19","num_nodes":"7","size_leaf_vector":"1"}},{"base_weights":[1.1650742E-2,3.0588737E-1,-4.1120998E-3,9.322846E-2,-7.747145E-3,-4.4011762E-3,1.8036166E-2],"categories":[],"categories_nodes":[],"categories_segments":[],"categories_sizes":[],"default_left":[0,0,0,0,0,0,0],"id":108,"left_children":[1,3,5,-1,-1,-1,-1],"loss_changes":[4.492853E0,1.196751E1,6.6735506E0,0E0,0E0,0E0,0E0],"parents":[2147483647,0,0,1,1,2,2],"right_children":[2,4,6,-1,-1,-1,-1],"split_conditions":[1.6442452E-2,2.8604906E-2,6.7719537E-1,9.322846E-2,-7.747145E-3,-4.4011762E-3,1.8036166E-2],"split_indices":[17,15,16,0,0,0,0],"split_type":[0,0,0,0,0,0,0],"sum_hessian":[9.480606E2,4.7593647E1,9.00467E2,1.7624573E1,2.9969072E1,7.414113E2,1.5905566E2],"tree_param":{"num_deleted":"0","num_feature":"19","num_nodes":"7","size_leaf_vector":"1"}},{"base_weights":[1.1711354E-2,5.5052586E-2,-1.3983397E-1,4.3928917E-3,1E-1,5.5001933E-2,-1.9045265E-2],"categories":[],"categories_nodes":[],"categories_segments":[],"categories_sizes":[],"default_left":[0,0,0,0,0,0,0],"id":109,"left_children":[1,3,5,-1,-1,-1,-1],"loss_changes":[6.2696114E0,9.434727E0,7.551302E0,0E0,0E0,0E0,0E0],"parents":[2147483647,0,0,1,1,2,2],"right_children":[2,4,6,-1,-1,-1,-1],"split_conditions":[1E0,3.666084E-3,1.6940707E-2,4.3928917E-3,1E-1,5.5001933E-2,-1.9045265E-2],"split_indices":[3,3,17,0,0,0,0],"split_type":[0,0,0,0,0,0,0],"sum_hessian":[9.4808704E2,7.382482E2,2.0983882E2,7.325644E2,5.6838164E0,1.3535099E1,1.9630373E2],"tree_param":{"num_deleted":"0","num_feature":"19","num_nodes":"7","size_leaf_vector":"1"}},{"base_weights":[8.126885E-3,4.3791402E-2,-1.20864235E-1,1.0524872E-2,-8.846532E-3,-5.7146516E-2,-8.231542E-3],"categories":[],"categories_nodes":[],"categories_segments":[],"categories_sizes":[],"default_left":[0,0,0,0,0,0,0],"id":110,"left_children":[1,3,5,-1,-1,-1,-1],"loss_changes":[4.3985767E0,6.1001105E0,3.5619261E0,0E0,0E0,0E0,0E0],"parents":[2147483647,0,0,1,1,2,2],"right_children":[2,4,6,-1,-1,-1,-1],"split_conditions":[1E0,1E0,1E0,1.0524872E-2,-8.846532E-3,-5.7146516E-2,-8.231542E-3],"split_indices":[3,15,5,0,0,0,0],"split_type":[0,0,0,0,0,0,0],"sum_hessian":[9.488478E2,7.4445154E2,2.0439627E2,5.08924E2,2.3552751E2,1.4814109E1,1.8958217E2],"tree_param":{"num_deleted":"0","num_feature":"19","num_nodes":"7","size_leaf_vector":"1"}},{"base_weights":[3.8444174E-3,3.927245E-2,-2.9598653E-1,2.7652638E-4,2.12598E-2,-5.6351762E-2,-2.5020647E-3],"categories":[],"categories_nodes":[],"categories_segments":[],"categories_sizes":[],"default_left":[0,0,0,0,0,0,0],"id":111,"left_children":[1,3,5,-1,-1,-1,-1],"loss_changes":[1.0081572E1,5.363573E0,7.205187E0,0E0,0E0,0E0,0E0],"parents":[2147483647,0,0,1,1,2,2],"right_children":[2,4,6,-1,-1,-1,-1],"split_conditions":[8.450704E-1,3.7582489E-3,5.217063E-1,2.7652638E-4,2.12598E-2,-5.6351762E-2,-2.5020647E-3],"split_indices":[4,14,14,0,0,0,0],"split_type":[0,0,0,0,0,0,0],"sum_hessian":[9.431666E2,8.445742E2,9.859238E1,6.9894904E2,1.4562523E2,4.8881645E1,4.971073E1],"tree_param":{"num_deleted":"0","num_feature":"19","num_nodes":"7","size_leaf_vector":"1"}},{"base_weights":[-5.5778543E-3,-4.401921E-2,1.6981626E-1,-1.663774E-2,9.840134E-4,1E-1,5.244893E-4],"categories":[],"categories_nodes":[],"categories_segments":[],"categories_sizes":[],"default_left":[0,0,0,0,0,0,0],"id":112,"left_children":[1,3,5,-1,-1,-1,-1],"loss_changes":[6.440869E0,5.1864357E0,3.1243193E1,0E0,0E0,0E0,0E0],"parents":[2147483647,0,0,1,1,2,2],"right_children":[2,4,6,-1,-1,-1,-1],"split_conditions":[6.7719537E-1,1.10617755E-2,1E0,-1.663774E-2,9.840134E-4,1E-1,5.244893E-4],"split_indices":[16,9,16,0,0,0,0],"split_type":[0,0,0,0,0,0,0],"sum_hessian":[9.4885974E2,7.7936456E2,1.6949518E2,2.381349E2,5.412296E2,1.9129303E1,1.5036588E2],"tree_param":{"num_deleted":"0","num_feature":"19","num_nodes":"7","size_leaf_vector":"1"}},{"base_weights":[2.5800237E-2,3.929656E-2,-4.6142775E-1,-2.428505E-3,1.43408775E-2,-9.248908E-2,-1.2364458E-2],"categories":[],"categories_nodes":[],"categories_segments":[],"categories_sizes":[],"default_left":[0,0,0,0,0,0,0],"id":113,"left_children":[1,3,5,-1,-1,-1,-1],"loss_changes":[6.312658E0,6.1624994E0,3.8844733E0,0E0,0E0,0E0,0E0],"parents":[2147483647,0,0,1,1,2,2],"right_children":[2,4,6,-1,-1,-1,-1],"split_conditions":[9.859155E-1,2.9313713E-4,8.4261394E-1,-2.428505E-3,1.43408775E-2,-9.248908E-2,-1.2364458E-2],"split_indices":[4,11,18,0,0,0,0],"split_type":[0,0,0,0,0,0,0],"sum_hessian":[9.482025E2,9.237393E2,2.4463194E1,5.733805E2,3.503588E2,9.455456E0,1.5007738E1],"tree_param":{"num_deleted":"0","num_feature":"19","num_nodes":"7","size_leaf_vector":"1"}},{"base_weights":[1.3201089E-3,-9.403899E-3,6.0373175E-1,2.8916076E-3,-2.5275012E-2,-6.5406375E-3,9.045644E-2],"categories":[],"categories_nodes":[],"categories_segments":[],"categories_sizes":[],"default_left":[0,0,0,0,0,0,0],"id":114,"left_children":[1,3,5,-1,-1,-1,-1],"loss_changes":[6.289369E0,8.745487E0,3.5777369E0,0E0,0E0,0E0,0E0],"parents":[2147483647,0,0,1,1,2,2],"right_children":[2,4,6,-1,-1,-1,-1],"split_conditions":[9.337319E-1,7.746479E-1,3.6088008E-1,2.8916076E-3,-2.5275012E-2,-6.5406375E-3,9.045644E-2],"split_indices":[17,4,16,0,0,0,0],"split_type":[0,0,0,0,0,0,0],"sum_hessian":[9.4352686E2,9.2782825E2,1.5698616E1,8.020058E2,1.25822426E2,5.008483E0,1.0690133E1],"tree_param":{"num_deleted":"0","num_feature":"19","num_nodes":"7","size_leaf_vector":"1"}},{"base_weights":[-2.5247816E-2,-9.479762E-2,8.633087E-2,-2.908936E-2,-5.4487964E-4,1E-1,-2.5671932E-3],"categories":[],"categories_nodes":[],"categories_segments":[],"categories_sizes":[],"default_left":[0,0,0,0,0,0,0],"id":115,"left_children":[1,3,5,-1,-1,-1,-1],"loss_changes":[7.311774E0,1.0140646E1,4.772264E1,0E0,0E0,0E0,0E0],"parents":[2147483647,0,0,1,1,2,2],"right_children":[2,4,6,-1,-1,-1,-1],"split_conditions":[1.0329448E-3,9.116291E-3,4.9917376E-1,-2.908936E-2,-5.4487964E-4,1E-1,-2.5671932E-3],"split_indices":[8,7,8,0,0,0,0],"split_type":[0,0,0,0,0,0,0],"sum_hessian":[9.360243E2,5.7725397E2,3.5877032E2,1.796334E2,3.9762057E2,2.8337872E1,3.3043246E2],"tree_param":{"num_deleted":"0","num_feature":"19","num_nodes":"7","size_leaf_vector":"1"}},{"base_weights":[-6.5143094E-3,-6.810819E-2,9.6174315E-2,3.2377876E-3,-1.8666295E-2,1E-1,-0E0],"categories":[],"categories_nodes":[],"categories_segments":[],"categories_sizes":[],"default_left":[0,0,0,0,0,0,0],"id":116,"left_children":[1,3,5,-1,-1,-1,-1],"loss_changes":[6.015476E0,7.10649E0,3.916979E1,0E0,0E0,0E0,0E0],"parents":[2147483647,0,0,1,1,2,2],"right_children":[2,4,6,-1,-1,-1,-1],"split_conditions":[1.0329448E-3,3.3333334E-1,4.908837E-1,3.2377876E-3,-1.8666295E-2,1E-1,-0E0],"split_indices":[8,16,8,0,0,0,0],"split_type":[0,0,0,0,0,0,0],"sum_hessian":[9.444841E2,5.9119104E2,3.53293E2,3.1991608E2,2.7127496E2,2.4773872E1,3.2851913E2],"tree_param":{"num_deleted":"0","num_feature":"19","num_nodes":"7","size_leaf_vector":"1"}},{"base_weights":[5.195642E-2,1.060277E-1,-5.4758046E-2,9.1111585E-2,8.665938E-3,-1.9672854E-2,8.789168E-3],"categories":[],"categories_nodes":[],"categories_segments":[],"categories_sizes":[],"default_left":[0,0,0,0,0,0,0],"id":117,"left_children":[1,3,5,-1,-1,-1,-1],"loss_changes":[5.5058317E0,9.831133E0,6.5349307E0,0E0,0E0,0E0,0E0],"parents":[2147483647,0,0,1,1,2,2],"right_children":[2,4,6,-1,-1,-1,-1],"split_conditions":[1E0,1.5944196E-2,2.9313713E-4,9.1111585E-2,8.665938E-3,-1.9672854E-2,8.789168E-3],"split_indices":[15,17,11,0,0,0,0],"split_type":[0,0,0,0,0,0,0],"sum_hessian":[9.47519E2,6.2950024E2,3.1801874E2,1.3585454E1,6.159148E2,1.5955017E2,1.5846857E2],"tree_param":{"num_deleted":"0","num_feature":"19","num_nodes":"7","size_leaf_vector":"1"}},{"base_weights":[8.505314E-3,9.534333E-2,-5.18438E-2,5.3356984E-3,5.7427358E-2,6.7420597E-3,-1.5733887E-2],"categories":[],"categories_nodes":[],"categories_segments":[],"categories_sizes":[],"default_left":[0,0,0,0,0,0,0],"id":118,"left_children":[1,3,5,-1,-1,-1,-1],"loss_changes":[5.0127716E0,7.8619375E0,7.101691E0,0E0,0E0,0E0,0E0],"parents":[2147483647,0,0,1,1,2,2],"right_children":[2,4,6,-1,-1,-1,-1],"split_conditions":[1.6901408E-1,7.279522E-1,4.9331507E-1,5.3356984E-3,5.7427358E-2,6.7420597E-3,-1.5733887E-2],"split_indices":[4,17,9,0,0,0,0],"split_type":[0,0,0,0,0,0,0],"sum_hessian":[9.484609E2,3.8932602E2,5.591349E2,3.591598E2,3.0166231E1,2.6216492E2,2.9696994E2],"tree_param":{"num_deleted":"0","num_feature":"19","num_nodes":"7","size_leaf_vector":"1"}},{"base_weights":[6.642865E-3,5.150814E-2,-1.3221055E-1,3.2982053E-4,3.2599546E-2,-6.0775932E-2,-3.1043077E-3],"categories":[],"categories_nodes":[],"categories_segments":[],"categories_sizes":[],"default_left":[0,0,0,0,0,0,0],"id":119,"left_children":[1,3,5,-1,-1,-1,-1],"loss_changes":[6.0333395E0,9.669629E0,1.1319925E1,0E0,0E0,0E0,0E0],"parents":[2147483647,0,0,1,1,2,2],"right_children":[2,4,6,-1,-1,-1,-1],"split_conditions":[3.8101998E-1,2.5345173E-1,5.03921E-1,3.2982053E-4,3.2599546E-2,-6.0775932E-2,-3.1043077E-3],"split_indices":[18,18,6,0,0,0,0],"split_type":[0,0,0,0,0,0,0],"sum_hessian":[9.619977E2,7.280915E2,2.339062E2,6.204877E2,1.0760382E2,3.9979992E1,1.9392621E2],"tree_param":{"num_deleted":"0","num_feature":"19","num_nodes":"7","size_leaf_vector":"1"}},{"base_weights":[1.4916268E-4,1.3919455E-1,-4.839385E-2,1.1025362E-2,1E-1,4.9759997E-3,-1.4409962E-2],"categories":[],"categories_nodes":[],"categories_segments":[],"categories_sizes":[],"default_left":[0,0,0,0,0,0,0],"id":120,"left_children":[1,3,5,-1,-1,-1,-1],"loss_changes":[6.4607925E0,6.8029876E0,6.657647E0,0E0,0E0,0E0,0E0],"parents":[2147483647,0,0,1,1,2,2],"right_children":[2,4,6,-1,-1,-1,-1],"split_conditions":[7.042254E-2,5.8300808E-2,1E0,1.1025362E-2,1E-1,4.9759997E-3,-1.4409962E-2],"split_indices":[4,4,2,0,0,0,0],"split_type":[0,0,0,0,0,0,0],"sum_hessian":[9.4830225E2,2.4544586E2,7.028564E2,2.3953818E2,5.9076896E0,3.467115E2,3.561449E2],"tree_param":{"num_deleted":"0","num_feature":"19","num_nodes":"7","size_leaf_vector":"1"}},{"base_weights":[1.5923312E-2,-1.5241191E-1,4.5712695E-2,-2.4313347E-3,-6.439676E-2,4.294609E-2,2.3256687E-3],"categories":[],"categories_nodes":[],"categories_segments":[],"categories_sizes":[],"default_left":[0,0,0,0,0,0,0],"id":121,"left_children":[1,3,5,-1,-1,-1,-1],"loss_changes":[4.7980943E0,9.0004635E0,6.99496E0,0E0,0E0,0E0,0E0],"parents":[2147483647,0,0,1,1,2,2],"right_children":[2,4,6,-1,-1,-1,-1],"split_conditions":[1.15595415E-1,3.6886796E-1,2.5261584E-1,-2.4313347E-3,-6.439676E-2,4.294609E-2,2.3256687E-3],"split_indices":[17,14,17,0,0,0,0],"split_type":[0,0,0,0,0,0,0],"sum_hessian":[9.492961E2,1.4160948E2,8.076866E2,1.1332904E2,2.8280449E1,4.3402832E1,7.6428375E2],"tree_param":{"num_deleted":"0","num_feature":"19","num_nodes":"7","size_leaf_vector":"1"}},{"base_weights":[8.366465E-3,2.947276E-2,-2.3721789E-1,-6.909664E-4,2.0055162E-2,-8.28867E-2,1.13755055E-2],"categories":[],"categories_nodes":[],"categories_segments":[],"categories_sizes":[],"default_left":[0,0,0,0,0,0,0],"id":122,"left_children":[1,3,5,-1,-1,-1,-1],"loss_changes":[5.0061984E0,5.558076E0,1.6004072E1,0E0,0E0,0E0,0E0],"parents":[2147483647,0,0,1,1,2,2],"right_children":[2,4,6,-1,-1,-1,-1],"split_conditions":[1E0,3.7582489E-3,5.882506E-1,-6.909664E-4,2.0055162E-2,-8.28867E-2,1.13755055E-2],"split_indices":[14,14,18,0,0,0,0],"split_type":[0,0,0,0,0,0,0],"sum_hessian":[9.5750964E2,8.829162E2,7.459343E1,7.2838873E2,1.5452745E2,2.7372988E1,4.722044E1],"tree_param":{"num_deleted":"0","num_feature":"19","num_nodes":"7","size_leaf_vector":"1"}},{"base_weights":[-1.0666188E-2,-2.4064456E-3,-5.987409E-1,-3.6996447E-3,1.3539438E-2,-7.068373E-2,-3.7295826E-2],"categories":[],"categories_nodes":[],"categories_segments":[],"categories_sizes":[],"default_left":[0,0,0,0,0,0,0],"id":123,"left_children":[1,3,5,-1,-1,-1,-1],"loss_changes":[4.6093626E0,4.440572E0,3.7273884E-2,0E0,0E0,0E0,0E0],"parents":[2147483647,0,0,1,1,2,2],"right_children":[2,4,6,-1,-1,-1,-1],"split_conditions":[1E0,7.941937E-2,9.025791E-1,-3.6996447E-3,1.3539438E-2,-7.068373E-2,-3.7295826E-2],"split_indices":[4,1,17,0,0,0,0],"split_type":[0,0,0,0,0,0,0],"sum_hessian":[9.3630676E2,9.24496E2,1.1810773E1,7.4016187E2,1.8433412E2,6.246612E0,5.5641613E0],"tree_param":{"num_deleted":"0","num_feature":"19","num_nodes":"7","size_leaf_vector":"1"}},{"base_weights":[4.139792E-3,7.146701E-2,-8.0392405E-2,-8.5590145E-4,1E-1,-3.7374874E-3,-2.829948E-2],"categories":[],"categories_nodes":[],"categories_segments":[],"categories_sizes":[],"default_left":[0,0,0,0,0,0,0],"id":124,"left_children":[1,3,5,-1,-1,-1,-1],"loss_changes":[5.3802876E0,4.8760605E1,3.6332397E0,0E0,0E0,0E0,0E0],"parents":[2147483647,0,0,1,1,2,2],"right_children":[2,4,6,-1,-1,-1,-1],"split_conditions":[5E-1,4.372003E-3,1E0,-8.5590145E-4,1E-1,-3.7374874E-3,-2.829948E-2],"split_indices":[10,10,16,0,0,0,0],"split_type":[0,0,0,0,0,0,0],"sum_hessian":[9.383063E2,5.2305054E2,4.152557E2,4.917251E2,3.1325447E1,3.4391254E2,7.134314E1],"tree_param":{"num_deleted":"0","num_feature":"19","num_nodes":"7","size_leaf_vector":"1"}},{"base_weights":[-7.8369805E-4,-7.672434E-2,5.5819177E-3,4.333886E-2,-5.406832E-4],"categories":[],"categories_nodes":[],"categories_segments":[],"categories_sizes":[],"default_left":[0,0,0,0,0],"id":125,"left_children":[1,-1,3,-1,-1],"loss_changes":[4.769002E0,0E0,4.468651E0,0E0,0E0],"parents":[2147483647,0,0,2,2],"right_children":[2,-1,4,-1,-1],"split_conditions":[1.0463378E-2,-7.672434E-2,1.6155183E-4,4.333886E-2,-5.406832E-4],"split_indices":[17,0,18,0,0],"split_type":[0,0,0,0,0],"sum_hessian":[9.283206E2,6.7912555E0,9.2152936E2,2.2343113E1,8.991863E2],"tree_param":{"num_deleted":"0","num_feature":"19","num_nodes":"5","size_leaf_vector":"1"}},{"base_weights":[-9.6986006E-4,4.204684E-2,-1.2097571E-1,2.6439272E-3,8.630092E-2,1.10906055E-2,-1.887157E-2],"categories":[],"categories_nodes":[],"categories_segments":[],"categories_sizes":[],"default_left":[0,0,0,0,0,0,0],"id":126,"left_children":[1,3,5,-1,-1,-1,-1],"loss_changes":[4.8901567E0,8.911474E0,3.9679906E0,0E0,0E0,0E0,0E0],"parents":[2147483647,0,0,1,1,2,2],"right_children":[2,4,6,-1,-1,-1,-1],"split_conditions":[3.5301957E-1,3.395075E-1,7.0553064E-1,2.6439272E-3,8.630092E-2,1.10906055E-2,-1.887157E-2],"split_indices":[18,18,17,0,0,0,0],"split_type":[0,0,0,0,0,0,0],"sum_hessian":[9.3749805E2,6.899856E2,2.4751247E2,6.782453E2,1.1740317E1,5.548103E1,1.9203143E2],"tree_param":{"num_deleted":"0","num_feature":"19","num_nodes":"7","size_leaf_vector":"1"}},{"base_weights":[1.7615004E-2,7.639459E-2,-9.863012E-2,6.792188E-2,5.876176E-3,-2.3263263E-2,2.936314E-3],"categories":[],"categories_nodes":[],"categories_segments":[],"categories_sizes":[],"default_left":[0,0,0,0,0,0,0],"id":127,"left_children":[1,3,5,-1,-1,-1,-1],"loss_changes":[6.5775876E0,6.788653E0,5.5713844E0,0E0,0E0,0E0,0E0],"parents":[2147483647,0,0,1,1,2,2],"right_children":[2,4,6,-1,-1,-1,-1],"split_conditions":[1E0,1.6442452E-2,1.0329448E-3,6.792188E-2,5.876176E-3,-2.3263263E-2,2.936314E-3],"split_indices":[15,17,8,0,0,0,0],"split_type":[0,0,0,0,0,0,0],"sum_hessian":[9.562585E2,6.3591156E2,3.203469E2,1.6844572E1,6.1906696E2,1.5648195E2,1.6386496E2],"tree_param":{"num_deleted":"0","num_feature":"19","num_nodes":"7","size_leaf_vector":"1"}},{"base_weights":[-1.6514588E-2,1.9731587E-2,-1.2842306E-1,-2.945611E-3,3.6682416E-2,-2.9578093E-2,1.4979915E-3],"categories":[],"categories_nodes":[],"categories_segments":[],"categories_sizes":[],"default_left":[0,0,0,0,0,0,0],"id":128,"left_children":[1,3,5,-1,-1,-1,-1],"loss_changes":[3.8513033E0,1.2241057E1,5.6057205E0,0E0,0E0,0E0,0E0],"parents":[2147483647,0,0,1,1,2,2],"right_children":[2,4,6,-1,-1,-1,-1],"split_conditions":[3.8101998E-1,2.6684323E-1,4.6883047E-1,-2.945611E-3,3.6682416E-2,-2.9578093E-2,1.4979915E-3],"split_indices":[18,18,0,0,0,0,0],"split_type":[0,0,0,0,0,0,0],"sum_hessian":[9.386779E2,7.089766E2,2.2970125E2,6.215252E2,8.745148E1,1.0582886E2,1.2387239E2],"tree_param":{"num_deleted":"0","num_feature":"19","num_nodes":"7","size_leaf_vector":"1"}},{"base_weights":[-1.7464295E-2,-5.1310465E-2,1.1699881E-1,-2.2038175E-2,-1.2575884E-3,8.11747E-2,2.4371052E-3],"categories":[],"categories_nodes":[],"categories_segments":[],"categories_sizes":[],"default_left":[0,0,0,0,0,0,0],"id":129,"left_children":[1,3,5,-1,-1,-1,-1],"loss_changes":[4.3210382E0,4.952188E0,1.2224624E1,0E0,0E0,0E0,0E0],"parents":[2147483647,0,0,1,1,2,2],"right_children":[2,4,6,-1,-1,-1,-1],